digraph Tree {
node [shape=box, style="rounded", color="black", fontname=helvetica] ;
edge [fontname=helvetica] ;
0 [label="M2 <= 107.5\nmse = 96301797.1\nsamples = 545\nvalue = 26708.8"] ;
1 [label="M2 <= 77.5\nmse = 37621104.8\nsamples = 474\nvalue = 24306.9"] ;
0 -> 1 [labeldistance=2.5, labelangle=45, headlabel="True"] ;
2 [label="M2 <= 55.5\nmse = 18017968.1\nsamples = 402\nvalue = 22952.6"] ;
1 -> 2 ;
3 [label="DeptoCod <= 6.5\nmse = 11011719.7\nsamples = 240\nvalue = 21837.4"] ;
2 -> 3 ;
4 [label="M2 <= 37.5\nmse = 24469135.8\nsamples = 6\nvalue = 27444.4"] ;
3 -> 4 ;
5 [label="DeptoCod <= 3.5\nmse = 6560000.0\nsamples = 3\nvalue = 30200.0"] ;
4 -> 5 ;
6 [label="M2 <= 23.5\nmse = 1000000.0\nsamples = 2\nvalue = 29000.0"] ;
5 -> 6 ;
7 [label="mse = 0.0\nsamples = 1\nvalue = 30000.0"] ;
6 -> 7 ;
8 [label="mse = 0.0\nsamples = 1\nvalue = 28000.0"] ;
6 -> 8 ;
9 [label="mse = 0.0\nsamples = 1\nvalue = 35000.0"] ;
5 -> 9 ;
10 [label="DeptoCod <= 3.5\nmse = 25500000.0\nsamples = 3\nvalue = 24000.0"] ;
4 -> 10 ;
11 [label="M2 <= 42.5\nmse = 1000000.0\nsamples = 2\nvalue = 19000.0"] ;
10 -> 11 ;
12 [label="mse = 0.0\nsamples = 1\nvalue = 20000.0"] ;
11 -> 12 ;
13 [label="mse = 0.0\nsamples = 1\nvalue = 18000.0"] ;
11 -> 13 ;
14 [label="mse = 0.0\nsamples = 1\nvalue = 29000.0"] ;
10 -> 14 ;
15 [label="BarrioCod2 <= 20.0\nmse = 9894905.9\nsamples = 234\nvalue = 21700.3"] ;
3 -> 15 ;
16 [label="M2 <= 39.5\nmse = 9035349.3\nsamples = 78\nvalue = 20595.9"] ;
15 -> 16 ;
17 [label="M2 <= 33.0\nmse = 1596408.3\nsamples = 15\nvalue = 19152.2"] ;
16 -> 17 ;
18 [label="M2 <= 6.0\nmse = 543209.9\nsamples = 7\nvalue = 18388.9"] ;
17 -> 18 ;
19 [label="Casa <= 0.5\nmse = 796875.0\nsamples = 4\nvalue = 18875.0"] ;
18 -> 19 ;
20 [label="M2 <= 1.5\nmse = 722222.2\nsamples = 3\nvalue = 19166.7"] ;
19 -> 20 ;
21 [label="mse = 1000000.0\nsamples = 2\nvalue = 19000.0"] ;
20 -> 21 ;
22 [label="mse = 0.0\nsamples = 1\nvalue = 19500.0"] ;
20 -> 22 ;
23 [label="mse = 0.0\nsamples = 1\nvalue = 18000.0"] ;
19 -> 23 ;
24 [label="mse = 0.0\nsamples = 3\nvalue = 18000.0"] ;
18 -> 24 ;
25 [label="dormitorios <= 2.5\nmse = 1658163.3\nsamples = 8\nvalue = 19642.9"] ;
17 -> 25 ;
26 [label="BarrioCod2 <= 4.0\nmse = 1562130.2\nsamples = 7\nvalue = 19769.2"] ;
25 -> 26 ;
27 [label="mse = 0.0\nsamples = 1\nvalue = 20500.0"] ;
26 -> 27 ;
28 [label="BarrioCod2 <= 10.0\nmse = 1822500.0\nsamples = 6\nvalue = 19550.0"] ;
26 -> 28 ;
29 [label="mse = 0.0\nsamples = 1\nvalue = 18500.0"] ;
28 -> 29 ;
30 [label="BarrioCod2 <= 14.5\nmse = 1928571.4\nsamples = 5\nvalue = 20000.0"] ;
28 -> 30 ;
31 [label="M2 <= 35.5\nmse = 2560000.0\nsamples = 4\nvalue = 20200.0"] ;
30 -> 31 ;
32 [label="mse = 6250000.0\nsamples = 2\nvalue = 20500.0"] ;
31 -> 32 ;
33 [label="mse = 0.0\nsamples = 2\nvalue = 20000.0"] ;
31 -> 33 ;
34 [label="mse = 0.0\nsamples = 1\nvalue = 19500.0"] ;
30 -> 34 ;
35 [label="mse = 0.0\nsamples = 1\nvalue = 18000.0"] ;
25 -> 35 ;
36 [label="BarrioCod2 <= 13.5\nmse = 10156616.0\nsamples = 63\nvalue = 20928.0"] ;
16 -> 36 ;
37 [label="BarrioCod2 <= 9.0\nmse = 13842777.4\nsamples = 38\nvalue = 21658.9"] ;
36 -> 37 ;
38 [label="Casa <= 0.5\nmse = 13487712.7\nsamples = 16\nvalue = 20347.8"] ;
37 -> 38 ;
39 [label="BarrioCod2 <= 7.5\nmse = 16283950.6\nsamples = 14\nvalue = 20777.8"] ;
38 -> 39 ;
40 [label="dormitorios <= 1.5\nmse = 3895833.3\nsamples = 8\nvalue = 19750.0"] ;
39 -> 40 ;
41 [label="M2 <= 42.5\nmse = 4734375.0\nsamples = 5\nvalue = 19375.0"] ;
40 -> 41 ;
42 [label="mse = 10888888.9\nsamples = 2\nvalue = 20333.3"] ;
41 -> 42 ;
43 [label="M2 <= 47.5\nmse = 160000.0\nsamples = 3\nvalue = 18800.0"] ;
41 -> 43 ;
44 [label="mse = 0.0\nsamples = 1\nvalue = 18000.0"] ;
43 -> 44 ;
45 [label="mse = 0.0\nsamples = 2\nvalue = 19000.0"] ;
43 -> 45 ;
46 [label="BarrioCod2 <= 2.0\nmse = 1375000.0\nsamples = 3\nvalue = 20500.0"] ;
40 -> 46 ;
47 [label="mse = 0.0\nsamples = 1\nvalue = 22500.0"] ;
46 -> 47 ;
48 [label="BarrioCod2 <= 5.5\nmse = 55555.6\nsamples = 2\nvalue = 19833.3"] ;
46 -> 48 ;
49 [label="mse = 0.0\nsamples = 1\nvalue = 20000.0"] ;
48 -> 49 ;
50 [label="mse = 0.0\nsamples = 1\nvalue = 19500.0"] ;
48 -> 50 ;
51 [label="M2 <= 43.5\nmse = 34722222.2\nsamples = 6\nvalue = 22833.3"] ;
39 -> 51 ;
52 [label="M2 <= 41.0\nmse = 6546875.0\nsamples = 4\nvalue = 20875.0"] ;
51 -> 52 ;
53 [label="mse = 8166666.7\nsamples = 3\nvalue = 20500.0"] ;
52 -> 53 ;
54 [label="mse = 0.0\nsamples = 1\nvalue = 22000.0"] ;
52 -> 54 ;
55 [label="dormitorios <= 1.5\nmse = 68062500.0\nsamples = 2\nvalue = 26750.0"] ;
51 -> 55 ;
56 [label="mse = 0.0\nsamples = 1\nvalue = 35000.0"] ;
55 -> 56 ;
57 [label="mse = 0.0\nsamples = 1\nvalue = 18500.0"] ;
55 -> 57 ;
58 [label="BarrioCod2 <= 5.0\nmse = 360000.0\nsamples = 2\nvalue = 18800.0"] ;
38 -> 58 ;
59 [label="mse = 0.0\nsamples = 1\nvalue = 20000.0"] ;
58 -> 59 ;
60 [label="mse = 0.0\nsamples = 1\nvalue = 18500.0"] ;
58 -> 60 ;
61 [label="Casa <= 0.5\nmse = 12057135.0\nsamples = 22\nvalue = 22572.7"] ;
37 -> 61 ;
62 [label="BarrioCod2 <= 11.0\nmse = 12380437.0\nsamples = 21\nvalue = 22738.7"] ;
61 -> 62 ;
63 [label="mse = 0.0\nsamples = 1\nvalue = 26000.0"] ;
62 -> 63 ;
64 [label="M2 <= 41.5\nmse = 12426766.7\nsamples = 20\nvalue = 22630.0"] ;
62 -> 64 ;
65 [label="dormitorios <= 1.5\nmse = 25790000.0\nsamples = 6\nvalue = 23400.0"] ;
64 -> 65 ;
66 [label="mse = 25691358.0\nsamples = 5\nvalue = 23944.4"] ;
65 -> 66 ;
67 [label="mse = 0.0\nsamples = 1\nvalue = 18500.0"] ;
65 -> 67 ;
68 [label="M2 <= 47.0\nmse = 5300475.0\nsamples = 14\nvalue = 22245.0"] ;
64 -> 68 ;
69 [label="M2 <= 44.0\nmse = 2062500.0\nsamples = 3\nvalue = 20250.0"] ;
68 -> 69 ;
70 [label="mse = 0.0\nsamples = 1\nvalue = 21500.0"] ;
69 -> 70 ;
71 [label="mse = 1000000.0\nsamples = 2\nvalue = 19000.0"] ;
69 -> 71 ;
72 [label="M2 <= 53.5\nmse = 4866210.9\nsamples = 11\nvalue = 22743.8"] ;
68 -> 72 ;
73 [label="M2 <= 49.5\nmse = 2712396.7\nsamples = 7\nvalue = 23081.8"] ;
72 -> 73 ;
74 [label="mse = 0.0\nsamples = 1\nvalue = 22000.0"] ;
73 -> 74 ;
75 [label="M2 <= 51.5\nmse = 2854900.0\nsamples = 6\nvalue = 23190.0"] ;
73 -> 75 ;
76 [label="M2 <= 50.5\nmse = 3160246.9\nsamples = 5\nvalue = 23155.6"] ;
75 -> 76 ;
77 [label="mse = 1482857.1\nsamples = 3\nvalue = 23200.0"] ;
76 -> 77 ;
78 [label="mse = 9000000.0\nsamples = 2\nvalue = 23000.0"] ;
76 -> 78 ;
79 [label="mse = 0.0\nsamples = 1\nvalue = 23500.0"] ;
75 -> 79 ;
80 [label="dormitorios <= 1.5\nmse = 8800000.0\nsamples = 4\nvalue = 22000.0"] ;
72 -> 80 ;
81 [label="mse = 10687500.0\nsamples = 3\nvalue = 21750.0"] ;
80 -> 81 ;
82 [label="mse = 0.0\nsamples = 1\nvalue = 23000.0"] ;
80 -> 82 ;
83 [label="mse = 0.0\nsamples = 1\nvalue = 20000.0"] ;
61 -> 83 ;
84 [label="M2 <= 54.5\nmse = 3919767.6\nsamples = 25\nvalue = 19997.7"] ;
36 -> 84 ;
85 [label="M2 <= 52.5\nmse = 3971743.8\nsamples = 23\nvalue = 20122.5"] ;
84 -> 85 ;
86 [label="dormitorios <= 2.5\nmse = 3784898.0\nsamples = 19\nvalue = 19828.6"] ;
85 -> 86 ;
87 [label="BarrioCod2 <= 16.0\nmse = 3753460.2\nsamples = 18\nvalue = 19764.7"] ;
86 -> 87 ;
88 [label="M2 <= 46.0\nmse = 888888.9\nsamples = 3\nvalue = 18666.7"] ;
87 -> 88 ;
89 [label="mse = 0.0\nsamples = 1\nvalue = 18000.0"] ;
88 -> 89 ;
90 [label="M2 <= 51.0\nmse = 1000000.0\nsamples = 2\nvalue = 19000.0"] ;
88 -> 90 ;
91 [label="mse = 0.0\nsamples = 1\nvalue = 20000.0"] ;
90 -> 91 ;
92 [label="mse = 0.0\nsamples = 1\nvalue = 18000.0"] ;
90 -> 92 ;
93 [label="dormitorios <= 1.5\nmse = 3902705.5\nsamples = 15\nvalue = 19871.0"] ;
87 -> 93 ;
94 [label="M2 <= 46.5\nmse = 1810000.0\nsamples = 6\nvalue = 20300.0"] ;
93 -> 94 ;
95 [label="M2 <= 41.0\nmse = 400000.0\nsamples = 3\nvalue = 21000.0"] ;
94 -> 95 ;
96 [label="mse = 0.0\nsamples = 1\nvalue = 20000.0"] ;
95 -> 96 ;
97 [label="M2 <= 43.5\nmse = 187500.0\nsamples = 2\nvalue = 21250.0"] ;
95 -> 97 ;
98 [label="mse = 0.0\nsamples = 1\nvalue = 21000.0"] ;
97 -> 98 ;
99 [label="mse = 0.0\nsamples = 1\nvalue = 22000.0"] ;
97 -> 99 ;
100 [label="M2 <= 49.0\nmse = 2240000.0\nsamples = 3\nvalue = 19600.0"] ;
94 -> 100 ;
101 [label="mse = 0.0\nsamples = 1\nvalue = 20000.0"] ;
100 -> 101 ;
102 [label="mse = 3555555.6\nsamples = 2\nvalue = 19333.3"] ;
100 -> 102 ;
103 [label="M2 <= 47.5\nmse = 4769841.3\nsamples = 9\nvalue = 19666.7"] ;
93 -> 103 ;
104 [label="M2 <= 45.5\nmse = 240000.0\nsamples = 3\nvalue = 18600.0"] ;
103 -> 104 ;
105 [label="mse = 0.0\nsamples = 2\nvalue = 19000.0"] ;
104 -> 105 ;
106 [label="mse = 0.0\nsamples = 1\nvalue = 18000.0"] ;
104 -> 106 ;
107 [label="M2 <= 49.5\nmse = 5718750.0\nsamples = 6\nvalue = 20000.0"] ;
103 -> 107 ;
108 [label="mse = 0.0\nsamples = 1\nvalue = 24000.0"] ;
107 -> 108 ;
109 [label="mse = 4962222.2\nsamples = 5\nvalue = 19733.3"] ;
107 -> 109 ;
110 [label="mse = 0.0\nsamples = 1\nvalue = 22000.0"] ;
86 -> 110 ;
111 [label="BarrioCod2 <= 18.0\nmse = 441600.0\nsamples = 4\nvalue = 22180.0"] ;
85 -> 111 ;
112 [label="M2 <= 53.5\nmse = 7500.0\nsamples = 3\nvalue = 21850.0"] ;
111 -> 112 ;
113 [label="mse = 0.0\nsamples = 2\nvalue = 21800.0"] ;
112 -> 113 ;
114 [label="mse = 0.0\nsamples = 1\nvalue = 22000.0"] ;
112 -> 114 ;
115 [label="mse = 0.0\nsamples = 1\nvalue = 23500.0"] ;
111 -> 115 ;
116 [label="dormitorios <= 1.5\nmse = 1687500.0\nsamples = 2\nvalue = 18750.0"] ;
84 -> 116 ;
117 [label="mse = 0.0\nsamples = 1\nvalue = 21000.0"] ;
116 -> 117 ;
118 [label="mse = 0.0\nsamples = 1\nvalue = 18000.0"] ;
116 -> 118 ;
119 [label="dormitorios <= 1.5\nmse = 9406790.3\nsamples = 156\nvalue = 22254.7"] ;
15 -> 119 ;
120 [label="M2 <= 35.5\nmse = 7404884.0\nsamples = 94\nvalue = 21456.8"] ;
119 -> 120 ;
121 [label="M2 <= 28.5\nmse = 4834906.1\nsamples = 20\nvalue = 20077.1"] ;
120 -> 121 ;
122 [label="mse = 0.0\nsamples = 1\nvalue = 24000.0"] ;
121 -> 122 ;
123 [label="BarrioCod2 <= 30.0\nmse = 4138751.1\nsamples = 19\nvalue = 19839.4"] ;
121 -> 123 ;
124 [label="M2 <= 32.0\nmse = 5312500.0\nsamples = 4\nvalue = 21750.0"] ;
123 -> 124 ;
125 [label="mse = 0.0\nsamples = 1\nvalue = 23500.0"] ;
124 -> 125 ;
126 [label="M2 <= 33.5\nmse = 4500000.0\nsamples = 3\nvalue = 20000.0"] ;
124 -> 126 ;
127 [label="mse = 0.0\nsamples = 2\nvalue = 18500.0"] ;
126 -> 127 ;
128 [label="mse = 0.0\nsamples = 1\nvalue = 23000.0"] ;
126 -> 128 ;
129 [label="M2 <= 33.5\nmse = 2886447.2\nsamples = 15\nvalue = 19414.8"] ;
123 -> 129 ;
130 [label="BarrioCod2 <= 34.0\nmse = 562500.0\nsamples = 8\nvalue = 18750.0"] ;
129 -> 130 ;
131 [label="mse = 0.0\nsamples = 1\nvalue = 20000.0"] ;
130 -> 131 ;
132 [label="BarrioCod2 <= 45.0\nmse = 488888.9\nsamples = 7\nvalue = 18666.7"] ;
130 -> 132 ;
133 [label="M2 <= 32.0\nmse = 61224.5\nsamples = 4\nvalue = 18214.3"] ;
132 -> 133 ;
134 [label="BarrioCod2 <= 37.5\nmse = 40000.0\nsamples = 3\nvalue = 18100.0"] ;
133 -> 134 ;
135 [label="mse = 0.0\nsamples = 1\nvalue = 18000.0"] ;
134 -> 135 ;
136 [label="mse = 46875.0\nsamples = 2\nvalue = 18125.0"] ;
134 -> 136 ;
137 [label="mse = 0.0\nsamples = 1\nvalue = 18500.0"] ;
133 -> 137 ;
138 [label="M2 <= 31.5\nmse = 527343.8\nsamples = 3\nvalue = 19062.5"] ;
132 -> 138 ;
139 [label="mse = 540000.0\nsamples = 2\nvalue = 19400.0"] ;
138 -> 139 ;
140 [label="mse = 0.0\nsamples = 1\nvalue = 18500.0"] ;
138 -> 140 ;
141 [label="M2 <= 34.5\nmse = 4688760.3\nsamples = 7\nvalue = 20381.8"] ;
129 -> 141 ;
142 [label="mse = 2296875.0\nsamples = 2\nvalue = 22125.0"] ;
141 -> 142 ;
143 [label="BarrioCod2 <= 37.5\nmse = 3326938.8\nsamples = 5\nvalue = 19385.7"] ;
141 -> 143 ;
144 [label="mse = 5062500.0\nsamples = 2\nvalue = 20250.0"] ;
143 -> 144 ;
145 [label="BarrioCod2 <= 42.0\nmse = 2214400.0\nsamples = 3\nvalue = 19040.0"] ;
143 -> 145 ;
146 [label="mse = 0.0\nsamples = 1\nvalue = 18000.0"] ;
145 -> 146 ;
147 [label="mse = 2430000.0\nsamples = 2\nvalue = 19300.0"] ;
145 -> 147 ;
148 [label="BarrioCod2 <= 40.5\nmse = 7425752.1\nsamples = 74\nvalue = 21891.9"] ;
120 -> 148 ;
149 [label="M2 <= 52.5\nmse = 6111290.3\nsamples = 52\nvalue = 21502.5"] ;
148 -> 149 ;
150 [label="M2 <= 46.0\nmse = 4156363.2\nsamples = 46\nvalue = 21260.8"] ;
149 -> 150 ;
151 [label="BarrioCod2 <= 34.5\nmse = 4230062.7\nsamples = 36\nvalue = 21594.8"] ;
150 -> 151 ;
152 [label="BarrioCod2 <= 22.0\nmse = 3060847.1\nsamples = 14\nvalue = 20877.3"] ;
151 -> 152 ;
153 [label="Casa <= 0.5\nmse = 2000000.0\nsamples = 4\nvalue = 22000.0"] ;
152 -> 153 ;
154 [label="mse = 0.0\nsamples = 2\nvalue = 21000.0"] ;
153 -> 154 ;
155 [label="mse = 2250000.0\nsamples = 2\nvalue = 22500.0"] ;
153 -> 155 ;
156 [label="M2 <= 40.5\nmse = 2808710.9\nsamples = 10\nvalue = 20456.2"] ;
152 -> 156 ;
157 [label="Casa <= 0.5\nmse = 111111.1\nsamples = 5\nvalue = 19666.7"] ;
156 -> 157 ;
158 [label="BarrioCod2 <= 28.5\nmse = 132653.1\nsamples = 4\nvalue = 19714.3"] ;
157 -> 158 ;
159 [label="mse = 140000.0\nsamples = 3\nvalue = 19600.0"] ;
158 -> 159 ;
160 [label="mse = 0.0\nsamples = 1\nvalue = 20000.0"] ;
158 -> 160 ;
161 [label="mse = 0.0\nsamples = 1\nvalue = 19500.0"] ;
157 -> 161 ;
162 [label="BarrioCod2 <= 25.0\nmse = 4444898.0\nsamples = 5\nvalue = 21471.4"] ;
156 -> 162 ;
163 [label="M2 <= 42.0\nmse = 290400.0\nsamples = 3\nvalue = 20560.0"] ;
162 -> 163 ;
164 [label="mse = 0.0\nsamples = 1\nvalue = 21000.0"] ;
163 -> 164 ;
165 [label="M2 <= 44.0\nmse = 268888.9\nsamples = 2\nvalue = 20266.7"] ;
163 -> 165 ;
166 [label="mse = 0.0\nsamples = 1\nvalue = 19900.0"] ;
165 -> 166 ;
167 [label="mse = 0.0\nsamples = 1\nvalue = 21000.0"] ;
165 -> 167 ;
168 [label="M2 <= 43.5\nmse = 7562500.0\nsamples = 2\nvalue = 23750.0"] ;
162 -> 168 ;
169 [label="mse = 0.0\nsamples = 1\nvalue = 26500.0"] ;
168 -> 169 ;
170 [label="mse = 0.0\nsamples = 1\nvalue = 21000.0"] ;
168 -> 170 ;
171 [label="M2 <= 40.5\nmse = 4437668.5\nsamples = 22\nvalue = 22033.3"] ;
151 -> 171 ;
172 [label="M2 <= 39.0\nmse = 5693443.8\nsamples = 11\nvalue = 21549.9"] ;
171 -> 172 ;
173 [label="M2 <= 37.0\nmse = 1388888.9\nsamples = 2\nvalue = 23333.3"] ;
172 -> 173 ;
174 [label="mse = 0.0\nsamples = 1\nvalue = 22500.0"] ;
173 -> 174 ;
175 [label="mse = 0.0\nsamples = 1\nvalue = 25000.0"] ;
173 -> 175 ;
176 [label="BarrioCod2 <= 37.5\nmse = 5783465.2\nsamples = 9\nvalue = 21138.4"] ;
172 -> 176 ;
177 [label="mse = 4908888.9\nsamples = 2\nvalue = 22933.3"] ;
176 -> 177 ;
178 [label="mse = 4789320.1\nsamples = 7\nvalue = 20599.9"] ;
176 -> 178 ;
179 [label="M2 <= 41.5\nmse = 3096600.0\nsamples = 11\nvalue = 22420.0"] ;
171 -> 179 ;
180 [label="mse = 0.0\nsamples = 1\nvalue = 25900.0"] ;
179 -> 180 ;
181 [label="M2 <= 42.5\nmse = 2588642.7\nsamples = 10\nvalue = 22236.8"] ;
179 -> 181 ;
182 [label="mse = 0.0\nsamples = 1\nvalue = 20000.0"] ;
181 -> 182 ;
183 [label="M2 <= 44.5\nmse = 2439043.2\nsamples = 9\nvalue = 22361.1"] ;
181 -> 183 ;
184 [label="M2 <= 43.5\nmse = 6000000.0\nsamples = 4\nvalue = 22000.0"] ;
183 -> 184 ;
185 [label="mse = 8250000.0\nsamples = 3\nvalue = 22500.0"] ;
184 -> 185 ;
186 [label="mse = 0.0\nsamples = 1\nvalue = 21000.0"] ;
184 -> 186 ;
187 [label="BarrioCod2 <= 37.5\nmse = 560763.9\nsamples = 5\nvalue = 22541.7"] ;
183 -> 187 ;
188 [label="mse = 0.0\nsamples = 1\nvalue = 23000.0"] ;
187 -> 188 ;
189 [label="mse = 590909.1\nsamples = 4\nvalue = 22500.0"] ;
187 -> 189 ;
190 [label="M2 <= 51.0\nmse = 2018750.0\nsamples = 10\nvalue = 20050.0"] ;
150 -> 190 ;
191 [label="BarrioCod2 <= 28.5\nmse = 1686326.5\nsamples = 9\nvalue = 19771.4"] ;
190 -> 191 ;
192 [label="M2 <= 49.5\nmse = 1201388.9\nsamples = 4\nvalue = 20383.3"] ;
191 -> 192 ;
193 [label="mse = 0.0\nsamples = 2\nvalue = 21000.0"] ;
192 -> 193 ;
194 [label="mse = 1322500.0\nsamples = 2\nvalue = 19150.0"] ;
192 -> 194 ;
195 [label="BarrioCod2 <= 37.0\nmse = 1558593.8\nsamples = 5\nvalue = 19312.5"] ;
191 -> 195 ;
196 [label="mse = 0.0\nsamples = 1\nvalue = 18000.0"] ;
195 -> 196 ;
197 [label="M2 <= 49.0\nmse = 1312500.0\nsamples = 4\nvalue = 19750.0"] ;
195 -> 197 ;
198 [label="M2 <= 47.5\nmse = 421875.0\nsamples = 2\nvalue = 19375.0"] ;
197 -> 198 ;
199 [label="mse = 0.0\nsamples = 1\nvalue = 20500.0"] ;
198 -> 199 ;
200 [label="mse = 0.0\nsamples = 1\nvalue = 19000.0"] ;
198 -> 200 ;
201 [label="mse = 2250000.0\nsamples = 2\nvalue = 20500.0"] ;
197 -> 201 ;
202 [label="mse = 0.0\nsamples = 1\nvalue = 22000.0"] ;
190 -> 202 ;
203 [label="M2 <= 54.0\nmse = 19633877.6\nsamples = 6\nvalue = 24057.1"] ;
149 -> 203 ;
204 [label="BarrioCod2 <= 25.0\nmse = 7562500.0\nsamples = 2\nvalue = 29250.0"] ;
203 -> 204 ;
205 [label="mse = 0.0\nsamples = 1\nvalue = 26500.0"] ;
204 -> 205 ;
206 [label="mse = 0.0\nsamples = 1\nvalue = 32000.0"] ;
204 -> 206 ;
207 [label="BarrioCod2 <= 36.5\nmse = 9361600.0\nsamples = 4\nvalue = 21980.0"] ;
203 -> 207 ;
208 [label="BarrioCod2 <= 25.0\nmse = 750000.0\nsamples = 3\nvalue = 20500.0"] ;
207 -> 208 ;
209 [label="mse = 0.0\nsamples = 1\nvalue = 19000.0"] ;
208 -> 209 ;
210 [label="mse = 0.0\nsamples = 2\nvalue = 21000.0"] ;
208 -> 210 ;
211 [label="mse = 0.0\nsamples = 1\nvalue = 27900.0"] ;
207 -> 211 ;
212 [label="BarrioCod2 <= 41.5\nmse = 9459788.9\nsamples = 22\nvalue = 22943.3"] ;
148 -> 212 ;
213 [label="M2 <= 44.5\nmse = 7513877.6\nsamples = 8\nvalue = 24557.1"] ;
212 -> 213 ;
214 [label="M2 <= 42.0\nmse = 2250000.0\nsamples = 2\nvalue = 23500.0"] ;
213 -> 214 ;
215 [label="mse = 0.0\nsamples = 1\nvalue = 25000.0"] ;
214 -> 215 ;
216 [label="mse = 0.0\nsamples = 1\nvalue = 22000.0"] ;
214 -> 216 ;
217 [label="Casa <= 0.5\nmse = 8993600.0\nsamples = 6\nvalue = 24980.0"] ;
213 -> 217 ;
218 [label="M2 <= 47.5\nmse = 9820987.7\nsamples = 5\nvalue = 25111.1"] ;
217 -> 218 ;
219 [label="mse = 10937500.0\nsamples = 4\nvalue = 25000.0"] ;
218 -> 219 ;
220 [label="mse = 0.0\nsamples = 1\nvalue = 26000.0"] ;
218 -> 220 ;
221 [label="mse = 0.0\nsamples = 1\nvalue = 23800.0"] ;
217 -> 221 ;
222 [label="M2 <= 39.0\nmse = 6889648.4\nsamples = 14\nvalue = 21531.2"] ;
212 -> 222 ;
223 [label="M2 <= 37.0\nmse = 62500.0\nsamples = 2\nvalue = 24250.0"] ;
222 -> 223 ;
224 [label="mse = 0.0\nsamples = 1\nvalue = 24500.0"] ;
223 -> 224 ;
225 [label="mse = 0.0\nsamples = 1\nvalue = 24000.0"] ;
223 -> 225 ;
226 [label="M2 <= 45.5\nmse = 6658163.3\nsamples = 12\nvalue = 21142.9"] ;
222 -> 226 ;
227 [label="M2 <= 41.5\nmse = 3979591.8\nsamples = 5\nvalue = 19642.9"] ;
226 -> 227 ;
228 [label="mse = 6250000.0\nsamples = 2\nvalue = 21500.0"] ;
227 -> 228 ;
229 [label="BarrioCod2 <= 48.0\nmse = 1140000.0\nsamples = 3\nvalue = 18900.0"] ;
227 -> 229 ;
230 [label="BarrioCod2 <= 43.0\nmse = 46875.0\nsamples = 2\nvalue = 18375.0"] ;
229 -> 230 ;
231 [label="mse = 0.0\nsamples = 1\nvalue = 18000.0"] ;
230 -> 231 ;
232 [label="mse = 0.0\nsamples = 1\nvalue = 18500.0"] ;
230 -> 232 ;
233 [label="mse = 0.0\nsamples = 1\nvalue = 21000.0"] ;
229 -> 233 ;
234 [label="BarrioCod2 <= 43.0\nmse = 4836734.7\nsamples = 7\nvalue = 22642.9"] ;
226 -> 234 ;
235 [label="M2 <= 50.5\nmse = 4500000.0\nsamples = 3\nvalue = 21500.0"] ;
234 -> 235 ;
236 [label="mse = 0.0\nsamples = 1\nvalue = 18500.0"] ;
235 -> 236 ;
237 [label="mse = 0.0\nsamples = 2\nvalue = 23000.0"] ;
235 -> 237 ;
238 [label="Casa <= 0.5\nmse = 3375000.0\nsamples = 4\nvalue = 23500.0"] ;
234 -> 238 ;
239 [label="M2 <= 46.5\nmse = 500000.0\nsamples = 3\nvalue = 24500.0"] ;
238 -> 239 ;
240 [label="mse = 0.0\nsamples = 1\nvalue = 23500.0"] ;
239 -> 240 ;
241 [label="mse = 0.0\nsamples = 2\nvalue = 25000.0"] ;
239 -> 241 ;
242 [label="mse = 0.0\nsamples = 1\nvalue = 20500.0"] ;
238 -> 242 ;
243 [label="BarrioCod2 <= 41.5\nmse = 10035888.2\nsamples = 62\nvalue = 23431.3"] ;
119 -> 243 ;
244 [label="BarrioCod2 <= 38.0\nmse = 10031847.5\nsamples = 50\nvalue = 23845.6"] ;
243 -> 244 ;
245 [label="BarrioCod2 <= 25.0\nmse = 6827346.7\nsamples = 41\nvalue = 23286.2"] ;
244 -> 245 ;
246 [label="M2 <= 48.0\nmse = 4589591.8\nsamples = 18\nvalue = 22342.9"] ;
245 -> 246 ;
247 [label="M2 <= 46.0\nmse = 206400.0\nsamples = 3\nvalue = 24540.0"] ;
246 -> 247 ;
248 [label="dormitorios <= 2.5\nmse = 160000.0\nsamples = 2\nvalue = 24400.0"] ;
247 -> 248 ;
249 [label="mse = 0.0\nsamples = 1\nvalue = 24000.0"] ;
248 -> 249 ;
250 [label="mse = 0.0\nsamples = 1\nvalue = 24800.0"] ;
248 -> 250 ;
251 [label="mse = 0.0\nsamples = 1\nvalue = 25100.0"] ;
247 -> 251 ;
252 [label="Casa <= 0.5\nmse = 4264877.1\nsamples = 15\nvalue = 21865.2"] ;
246 -> 252 ;
253 [label="M2 <= 53.5\nmse = 3209475.0\nsamples = 13\nvalue = 21395.0"] ;
252 -> 253 ;
254 [label="BarrioCod2 <= 22.0\nmse = 3824400.0\nsamples = 6\nvalue = 22040.0"] ;
253 -> 254 ;
255 [label="mse = 0.0\nsamples = 1\nvalue = 18000.0"] ;
254 -> 255 ;
256 [label="M2 <= 51.5\nmse = 2234321.0\nsamples = 5\nvalue = 22488.9"] ;
254 -> 256 ;
257 [label="M2 <= 49.5\nmse = 1321875.0\nsamples = 4\nvalue = 22125.0"] ;
256 -> 257 ;
258 [label="mse = 0.0\nsamples = 1\nvalue = 21900.0"] ;
257 -> 258 ;
259 [label="mse = 2542500.0\nsamples = 3\nvalue = 22350.0"] ;
257 -> 259 ;
260 [label="mse = 0.0\nsamples = 1\nvalue = 25400.0"] ;
256 -> 260 ;
261 [label="BarrioCod2 <= 22.0\nmse = 1762500.0\nsamples = 7\nvalue = 20750.0"] ;
253 -> 261 ;
262 [label="M2 <= 54.5\nmse = 562500.0\nsamples = 2\nvalue = 21750.0"] ;
261 -> 262 ;
263 [label="mse = 0.0\nsamples = 1\nvalue = 22500.0"] ;
262 -> 263 ;
264 [label="mse = 0.0\nsamples = 1\nvalue = 21000.0"] ;
262 -> 264 ;
265 [label="M2 <= 54.5\nmse = 1750000.0\nsamples = 5\nvalue = 20500.0"] ;
261 -> 265 ;
266 [label="mse = 3555555.6\nsamples = 2\nvalue = 20833.3"] ;
265 -> 266 ;
267 [label="mse = 560000.0\nsamples = 3\nvalue = 20300.0"] ;
265 -> 267 ;
268 [label="mse = 0.0\nsamples = 2\nvalue = 25000.0"] ;
252 -> 268 ;
269 [label="M2 <= 44.0\nmse = 7337837.8\nsamples = 23\nvalue = 24000.0"] ;
245 -> 269 ;
270 [label="M2 <= 16.5\nmse = 13387755.1\nsamples = 6\nvalue = 21928.6"] ;
269 -> 270 ;
271 [label="BarrioCod2 <= 33.5\nmse = 12250000.0\nsamples = 2\nvalue = 26500.0"] ;
270 -> 271 ;
272 [label="mse = 0.0\nsamples = 1\nvalue = 23000.0"] ;
271 -> 272 ;
273 [label="mse = 0.0\nsamples = 1\nvalue = 30000.0"] ;
271 -> 273 ;
274 [label="BarrioCod2 <= 34.0\nmse = 2140000.0\nsamples = 4\nvalue = 20100.0"] ;
270 -> 274 ;
275 [label="M2 <= 39.5\nmse = 3062500.0\nsamples = 2\nvalue = 21250.0"] ;
274 -> 275 ;
276 [label="mse = 0.0\nsamples = 1\nvalue = 23000.0"] ;
275 -> 276 ;
277 [label="mse = 0.0\nsamples = 1\nvalue = 19500.0"] ;
275 -> 277 ;
278 [label="M2 <= 35.5\nmse = 55555.6\nsamples = 2\nvalue = 19333.3"] ;
274 -> 278 ;
279 [label="mse = 0.0\nsamples = 1\nvalue = 19000.0"] ;
278 -> 279 ;
280 [label="mse = 0.0\nsamples = 1\nvalue = 19500.0"] ;
278 -> 280 ;
281 [label="BarrioCod2 <= 35.5\nmse = 4691388.9\nsamples = 17\nvalue = 24483.3"] ;
269 -> 281 ;
282 [label="BarrioCod2 <= 34.5\nmse = 3576099.9\nsamples = 16\nvalue = 24689.7"] ;
281 -> 282 ;
283 [label="BarrioCod2 <= 32.0\nmse = 3831875.0\nsamples = 11\nvalue = 24175.0"] ;
282 -> 283 ;
284 [label="BarrioCod2 <= 29.0\nmse = 2734375.0\nsamples = 4\nvalue = 25625.0"] ;
283 -> 284 ;
285 [label="M2 <= 52.5\nmse = 5555555.6\nsamples = 2\nvalue = 26666.7"] ;
284 -> 285 ;
286 [label="mse = 0.0\nsamples = 1\nvalue = 30000.0"] ;
285 -> 286 ;
287 [label="mse = 0.0\nsamples = 1\nvalue = 25000.0"] ;
285 -> 287 ;
288 [label="mse = 0.0\nsamples = 2\nvalue = 25000.0"] ;
284 -> 288 ;
289 [label="M2 <= 54.5\nmse = 2227430.6\nsamples = 7\nvalue = 23208.3"] ;
283 -> 289 ;
290 [label="M2 <= 49.0\nmse = 802500.0\nsamples = 6\nvalue = 22650.0"] ;
289 -> 290 ;
291 [label="mse = 0.0\nsamples = 1\nvalue = 24000.0"] ;
290 -> 291 ;
292 [label="BarrioCod2 <= 33.5\nmse = 666666.7\nsamples = 5\nvalue = 22500.0"] ;
290 -> 292 ;
293 [label="M2 <= 53.0\nmse = 1562500.0\nsamples = 2\nvalue = 21750.0"] ;
292 -> 293 ;
294 [label="mse = 0.0\nsamples = 1\nvalue = 20500.0"] ;
293 -> 294 ;
295 [label="mse = 0.0\nsamples = 1\nvalue = 23000.0"] ;
293 -> 295 ;
296 [label="mse = 204081.6\nsamples = 3\nvalue = 22714.3"] ;
292 -> 296 ;
297 [label="mse = 0.0\nsamples = 1\nvalue = 26000.0"] ;
289 -> 297 ;
298 [label="M2 <= 54.5\nmse = 1111111.1\nsamples = 5\nvalue = 25833.3"] ;
282 -> 298 ;
299 [label="M2 <= 49.0\nmse = 250000.0\nsamples = 4\nvalue = 25500.0"] ;
298 -> 299 ;
300 [label="mse = 0.0\nsamples = 2\nvalue = 26000.0"] ;
299 -> 300 ;
301 [label="M2 <= 52.0\nmse = 222222.2\nsamples = 2\nvalue = 25333.3"] ;
299 -> 301 ;
302 [label="mse = 0.0\nsamples = 1\nvalue = 25000.0"] ;
301 -> 302 ;
303 [label="mse = 0.0\nsamples = 1\nvalue = 26000.0"] ;
301 -> 303 ;
304 [label="mse = 0.0\nsamples = 1\nvalue = 28500.0"] ;
298 -> 304 ;
305 [label="mse = 0.0\nsamples = 1\nvalue = 18500.0"] ;
281 -> 305 ;
306 [label="dormitorios <= 2.5\nmse = 16711020.4\nsamples = 9\nvalue = 26442.9"] ;
244 -> 306 ;
307 [label="Casa <= 0.5\nmse = 16662314.0\nsamples = 8\nvalue = 27436.4"] ;
306 -> 307 ;
308 [label="M2 <= 51.0\nmse = 12338024.7\nsamples = 7\nvalue = 28644.4"] ;
307 -> 308 ;
309 [label="M2 <= 45.5\nmse = 6674722.2\nsamples = 4\nvalue = 26883.3"] ;
308 -> 309 ;
310 [label="mse = 0.0\nsamples = 1\nvalue = 30000.0"] ;
309 -> 310 ;
311 [label="M2 <= 46.5\nmse = 2726875.0\nsamples = 3\nvalue = 25325.0"] ;
309 -> 311 ;
312 [label="mse = 0.0\nsamples = 1\nvalue = 22800.0"] ;
311 -> 312 ;
313 [label="M2 <= 48.5\nmse = 802222.2\nsamples = 2\nvalue = 26166.7"] ;
311 -> 313 ;
314 [label="mse = 0.0\nsamples = 1\nvalue = 26800.0"] ;
313 -> 314 ;
315 [label="mse = 0.0\nsamples = 1\nvalue = 24900.0"] ;
313 -> 315 ;
316 [label="M2 <= 53.5\nmse = 5055555.6\nsamples = 3\nvalue = 32166.7"] ;
308 -> 316 ;
317 [label="mse = 0.0\nsamples = 1\nvalue = 35000.0"] ;
316 -> 317 ;
318 [label="BarrioCod2 <= 40.5\nmse = 1562500.0\nsamples = 2\nvalue = 30750.0"] ;
316 -> 318 ;
319 [label="mse = 0.0\nsamples = 1\nvalue = 29500.0"] ;
318 -> 319 ;
320 [label="mse = 0.0\nsamples = 1\nvalue = 32000.0"] ;
318 -> 320 ;
321 [label="mse = 0.0\nsamples = 1\nvalue = 22000.0"] ;
307 -> 321 ;
322 [label="mse = 0.0\nsamples = 1\nvalue = 22800.0"] ;
306 -> 322 ;
323 [label="M2 <= 51.0\nmse = 6696475.0\nsamples = 12\nvalue = 21795.0"] ;
243 -> 323 ;
324 [label="M2 <= 49.5\nmse = 5058347.1\nsamples = 6\nvalue = 21127.3"] ;
323 -> 324 ;
325 [label="M2 <= 23.5\nmse = 6840000.0\nsamples = 3\nvalue = 22600.0"] ;
324 -> 325 ;
326 [label="mse = 0.0\nsamples = 1\nvalue = 20500.0"] ;
325 -> 326 ;
327 [label="M2 <= 47.0\nmse = 562500.0\nsamples = 2\nvalue = 25750.0"] ;
325 -> 327 ;
328 [label="mse = 0.0\nsamples = 1\nvalue = 26500.0"] ;
327 -> 328 ;
329 [label="mse = 0.0\nsamples = 1\nvalue = 25000.0"] ;
327 -> 329 ;
330 [label="BarrioCod2 <= 48.0\nmse = 260000.0\nsamples = 3\nvalue = 19900.0"] ;
324 -> 330 ;
331 [label="BarrioCod2 <= 44.5\nmse = 117600.0\nsamples = 2\nvalue = 20080.0"] ;
330 -> 331 ;
332 [label="mse = 0.0\nsamples = 1\nvalue = 19800.0"] ;
331 -> 332 ;
333 [label="mse = 0.0\nsamples = 1\nvalue = 20500.0"] ;
331 -> 333 ;
334 [label="mse = 0.0\nsamples = 1\nvalue = 19000.0"] ;
330 -> 334 ;
335 [label="dormitorios <= 2.5\nmse = 7487654.3\nsamples = 6\nvalue = 22611.1"] ;
323 -> 335 ;
336 [label="M2 <= 53.5\nmse = 6500000.0\nsamples = 4\nvalue = 25000.0"] ;
335 -> 336 ;
337 [label="mse = 0.0\nsamples = 1\nvalue = 28000.0"] ;
336 -> 337 ;
338 [label="BarrioCod2 <= 43.0\nmse = 4666666.7\nsamples = 3\nvalue = 24000.0"] ;
336 -> 338 ;
339 [label="mse = 0.0\nsamples = 1\nvalue = 21000.0"] ;
338 -> 339 ;
340 [label="BarrioCod2 <= 46.5\nmse = 250000.0\nsamples = 2\nvalue = 25500.0"] ;
338 -> 340 ;
341 [label="mse = 0.0\nsamples = 1\nvalue = 25000.0"] ;
340 -> 341 ;
342 [label="mse = 0.0\nsamples = 1\nvalue = 26000.0"] ;
340 -> 342 ;
343 [label="mse = 60000.0\nsamples = 2\nvalue = 20700.0"] ;
335 -> 343 ;
344 [label="BarrioCod2 <= 38.0\nmse = 24133757.6\nsamples = 162\nvalue = 24788.6"] ;
2 -> 344 ;
345 [label="dormitorios <= 3.5\nmse = 25231532.5\nsamples = 121\nvalue = 24217.1"] ;
344 -> 345 ;
346 [label="BarrioCod2 <= 7.5\nmse = 21452669.7\nsamples = 119\nvalue = 24088.7"] ;
345 -> 346 ;
347 [label="M2 <= 67.5\nmse = 5134500.0\nsamples = 9\nvalue = 20750.0"] ;
346 -> 347 ;
348 [label="M2 <= 62.0\nmse = 2215510.2\nsamples = 6\nvalue = 19585.7"] ;
347 -> 348 ;
349 [label="BarrioCod2 <= 6.5\nmse = 720000.0\nsamples = 3\nvalue = 18600.0"] ;
348 -> 349 ;
350 [label="mse = 0.0\nsamples = 2\nvalue = 18000.0"] ;
349 -> 350 ;
351 [label="mse = 0.0\nsamples = 1\nvalue = 19800.0"] ;
349 -> 351 ;
352 [label="dormitorios <= 1.5\nmse = 2061875.0\nsamples = 3\nvalue = 20325.0"] ;
348 -> 352 ;
353 [label="mse = 0.0\nsamples = 1\nvalue = 21500.0"] ;
352 -> 353 ;
354 [label="mse = 2135555.6\nsamples = 2\nvalue = 19933.3"] ;
352 -> 354 ;
355 [label="Casa <= 0.5\nmse = 1402222.2\nsamples = 3\nvalue = 23466.7"] ;
347 -> 355 ;
356 [label="dormitorios <= 2.5\nmse = 562500.0\nsamples = 2\nvalue = 22750.0"] ;
355 -> 356 ;
357 [label="mse = 0.0\nsamples = 1\nvalue = 22000.0"] ;
356 -> 357 ;
358 [label="mse = 0.0\nsamples = 1\nvalue = 23500.0"] ;
356 -> 358 ;
359 [label="mse = 0.0\nsamples = 1\nvalue = 24900.0"] ;
355 -> 359 ;
360 [label="BarrioCod2 <= 12.5\nmse = 21735316.5\nsamples = 110\nvalue = 24300.0"] ;
346 -> 360 ;
361 [label="M2 <= 63.0\nmse = 39837338.8\nsamples = 24\nvalue = 26445.7"] ;
360 -> 361 ;
362 [label="BarrioCod2 <= 9.0\nmse = 24575400.0\nsamples = 13\nvalue = 24540.0"] ;
361 -> 362 ;
363 [label="M2 <= 58.5\nmse = 8750400.0\nsamples = 4\nvalue = 21760.0"] ;
362 -> 363 ;
364 [label="mse = 0.0\nsamples = 1\nvalue = 26800.0"] ;
363 -> 364 ;
365 [label="Casa <= 0.5\nmse = 3000000.0\nsamples = 3\nvalue = 20500.0"] ;
363 -> 365 ;
366 [label="mse = 0.0\nsamples = 2\nvalue = 19500.0"] ;
365 -> 366 ;
367 [label="mse = 0.0\nsamples = 1\nvalue = 23500.0"] ;
365 -> 367 ;
368 [label="BarrioCod2 <= 11.0\nmse = 26415555.6\nsamples = 9\nvalue = 25466.7"] ;
362 -> 368 ;
369 [label="mse = 0.0\nsamples = 1\nvalue = 35000.0"] ;
368 -> 369 ;
370 [label="M2 <= 60.5\nmse = 14346153.8\nsamples = 8\nvalue = 24000.0"] ;
368 -> 370 ;
371 [label="Casa <= 0.5\nmse = 15125000.0\nsamples = 5\nvalue = 25750.0"] ;
370 -> 371 ;
372 [label="M2 <= 58.5\nmse = 2000000.0\nsamples = 2\nvalue = 28000.0"] ;
371 -> 372 ;
373 [label="mse = 0.0\nsamples = 1\nvalue = 26000.0"] ;
372 -> 373 ;
374 [label="mse = 0.0\nsamples = 1\nvalue = 29000.0"] ;
372 -> 374 ;
375 [label="M2 <= 59.0\nmse = 18140000.0\nsamples = 3\nvalue = 24400.0"] ;
371 -> 375 ;
376 [label="mse = 3555555.6\nsamples = 2\nvalue = 27666.7"] ;
375 -> 376 ;
377 [label="mse = 0.0\nsamples = 1\nvalue = 19500.0"] ;
375 -> 377 ;
378 [label="Casa <= 0.5\nmse = 360000.0\nsamples = 3\nvalue = 21200.0"] ;
370 -> 378 ;
379 [label="mse = 0.0\nsamples = 2\nvalue = 21500.0"] ;
378 -> 379 ;
380 [label="mse = 0.0\nsamples = 1\nvalue = 20000.0"] ;
378 -> 380 ;
381 [label="M2 <= 64.5\nmse = 48887822.2\nsamples = 11\nvalue = 28986.7"] ;
361 -> 381 ;
382 [label="mse = 0.0\nsamples = 1\nvalue = 38000.0"] ;
381 -> 382 ;
383 [label="M2 <= 74.0\nmse = 41987692.3\nsamples = 10\nvalue = 27600.0"] ;
381 -> 383 ;
384 [label="M2 <= 71.5\nmse = 32614375.0\nsamples = 7\nvalue = 29225.0"] ;
383 -> 384 ;
385 [label="BarrioCod2 <= 10.0\nmse = 31828571.4\nsamples = 6\nvalue = 28400.0"] ;
384 -> 385 ;
386 [label="M2 <= 69.0\nmse = 9327500.0\nsamples = 4\nvalue = 26450.0"] ;
385 -> 386 ;
387 [label="M2 <= 66.5\nmse = 2890000.0\nsamples = 2\nvalue = 29200.0"] ;
386 -> 387 ;
388 [label="mse = 0.0\nsamples = 1\nvalue = 30900.0"] ;
387 -> 388 ;
389 [label="mse = 0.0\nsamples = 1\nvalue = 27500.0"] ;
387 -> 389 ;
390 [label="Casa <= 0.5\nmse = 640000.0\nsamples = 2\nvalue = 23700.0"] ;
386 -> 390 ;
391 [label="mse = 0.0\nsamples = 1\nvalue = 24500.0"] ;
390 -> 391 ;
392 [label="mse = 0.0\nsamples = 1\nvalue = 22900.0"] ;
390 -> 392 ;
393 [label="mse = 50000000.0\nsamples = 2\nvalue = 31000.0"] ;
385 -> 393 ;
394 [label="mse = 0.0\nsamples = 1\nvalue = 35000.0"] ;
384 -> 394 ;
395 [label="BarrioCod2 <= 10.0\nmse = 46000000.0\nsamples = 3\nvalue = 25000.0"] ;
383 -> 395 ;
396 [label="mse = 0.0\nsamples = 1\nvalue = 23000.0"] ;
395 -> 396 ;
397 [label="mse = 56250000.0\nsamples = 2\nvalue = 25500.0"] ;
395 -> 397 ;
398 [label="BarrioCod2 <= 16.0\nmse = 14901433.0\nsamples = 86\nvalue = 23689.4"] ;
360 -> 398 ;
399 [label="M2 <= 71.0\nmse = 637600.0\nsamples = 5\nvalue = 18880.0"] ;
398 -> 399 ;
400 [label="mse = 0.0\nsamples = 2\nvalue = 18000.0"] ;
399 -> 400 ;
401 [label="M2 <= 73.5\nmse = 436734.7\nsamples = 3\nvalue = 19257.1"] ;
399 -> 401 ;
402 [label="mse = 0.0\nsamples = 1\nvalue = 20000.0"] ;
401 -> 402 ;
403 [label="dormitorios <= 2.5\nmse = 40000.0\nsamples = 2\nvalue = 18700.0"] ;
401 -> 403 ;
404 [label="mse = 0.0\nsamples = 1\nvalue = 18900.0"] ;
403 -> 404 ;
405 [label="mse = 0.0\nsamples = 1\nvalue = 18500.0"] ;
403 -> 405 ;
406 [label="BarrioCod2 <= 33.5\nmse = 13935614.4\nsamples = 81\nvalue = 24115.0"] ;
398 -> 406 ;
407 [label="M2 <= 59.5\nmse = 14331182.9\nsamples = 64\nvalue = 23773.0"] ;
406 -> 407 ;
408 [label="M2 <= 58.5\nmse = 4137577.9\nsamples = 9\nvalue = 25464.7"] ;
407 -> 408 ;
409 [label="M2 <= 56.5\nmse = 2361523.4\nsamples = 8\nvalue = 25118.8"] ;
408 -> 409 ;
410 [label="dormitorios <= 2.5\nmse = 2088593.8\nsamples = 4\nvalue = 24112.5"] ;
409 -> 410 ;
411 [label="BarrioCod2 <= 22.0\nmse = 1201388.9\nsamples = 3\nvalue = 23483.3"] ;
410 -> 411 ;
412 [label="mse = 0.0\nsamples = 1\nvalue = 24000.0"] ;
411 -> 412 ;
413 [label="mse = 1868888.9\nsamples = 2\nvalue = 22966.7"] ;
411 -> 413 ;
414 [label="mse = 0.0\nsamples = 1\nvalue = 26000.0"] ;
410 -> 414 ;
415 [label="BarrioCod2 <= 25.5\nmse = 609375.0\nsamples = 4\nvalue = 26125.0"] ;
409 -> 415 ;
416 [label="BarrioCod2 <= 20.5\nmse = 240000.0\nsamples = 2\nvalue = 26400.0"] ;
415 -> 416 ;
417 [label="mse = 0.0\nsamples = 1\nvalue = 26000.0"] ;
416 -> 417 ;
418 [label="mse = 0.0\nsamples = 1\nvalue = 27000.0"] ;
416 -> 418 ;
419 [label="M2 <= 57.5\nmse = 888888.9\nsamples = 2\nvalue = 25666.7"] ;
415 -> 419 ;
420 [label="mse = 0.0\nsamples = 1\nvalue = 25000.0"] ;
419 -> 420 ;
421 [label="mse = 0.0\nsamples = 1\nvalue = 27000.0"] ;
419 -> 421 ;
422 [label="mse = 0.0\nsamples = 1\nvalue = 31000.0"] ;
408 -> 422 ;
423 [label="BarrioCod2 <= 22.0\nmse = 15902775.8\nsamples = 55\nvalue = 23373.6"] ;
407 -> 423 ;
424 [label="BarrioCod2 <= 20.5\nmse = 13380645.2\nsamples = 23\nvalue = 24300.0"] ;
423 -> 424 ;
425 [label="M2 <= 61.5\nmse = 8368736.0\nsamples = 18\nvalue = 23692.0"] ;
424 -> 425 ;
426 [label="dormitorios <= 1.5\nmse = 18472222.2\nsamples = 6\nvalue = 25166.7"] ;
425 -> 426 ;
427 [label="mse = 0.0\nsamples = 1\nvalue = 30000.0"] ;
426 -> 427 ;
428 [label="M2 <= 60.5\nmse = 16560000.0\nsamples = 5\nvalue = 24200.0"] ;
426 -> 428 ;
429 [label="mse = 19687500.0\nsamples = 4\nvalue = 23750.0"] ;
428 -> 429 ;
430 [label="mse = 0.0\nsamples = 1\nvalue = 26000.0"] ;
428 -> 430 ;
431 [label="M2 <= 71.0\nmse = 4274570.6\nsamples = 12\nvalue = 23226.3"] ;
425 -> 431 ;
432 [label="BarrioCod2 <= 18.0\nmse = 4613600.0\nsamples = 8\nvalue = 22820.0"] ;
431 -> 432 ;
433 [label="dormitorios <= 1.5\nmse = 4099591.8\nsamples = 7\nvalue = 23057.1"] ;
432 -> 433 ;
434 [label="mse = 0.0\nsamples = 1\nvalue = 26000.0"] ;
433 -> 434 ;
435 [label="M2 <= 66.5\nmse = 3098888.9\nsamples = 6\nvalue = 22566.7"] ;
433 -> 435 ;
436 [label="M2 <= 63.0\nmse = 2207500.0\nsamples = 3\nvalue = 23950.0"] ;
435 -> 436 ;
437 [label="mse = 0.0\nsamples = 1\nvalue = 21800.0"] ;
436 -> 437 ;
438 [label="M2 <= 65.0\nmse = 888888.9\nsamples = 2\nvalue = 24666.7"] ;
436 -> 438 ;
439 [label="mse = 0.0\nsamples = 1\nvalue = 26000.0"] ;
438 -> 439 ;
440 [label="mse = 0.0\nsamples = 1\nvalue = 24000.0"] ;
438 -> 440 ;
441 [label="M2 <= 68.5\nmse = 2109375.0\nsamples = 3\nvalue = 21875.0"] ;
435 -> 441 ;
442 [label="Casa <= 0.5\nmse = 2160000.0\nsamples = 2\nvalue = 21200.0"] ;
441 -> 442 ;
443 [label="mse = 0.0\nsamples = 1\nvalue = 20000.0"] ;
442 -> 443 ;
444 [label="mse = 0.0\nsamples = 1\nvalue = 23000.0"] ;
442 -> 444 ;
445 [label="mse = 0.0\nsamples = 1\nvalue = 23000.0"] ;
441 -> 445 ;
446 [label="mse = 0.0\nsamples = 1\nvalue = 19500.0"] ;
432 -> 446 ;
447 [label="dormitorios <= 2.5\nmse = 62500.0\nsamples = 4\nvalue = 24750.0"] ;
431 -> 447 ;
448 [label="M2 <= 73.5\nmse = 55555.6\nsamples = 3\nvalue = 24666.7"] ;
447 -> 448 ;
449 [label="mse = 0.0\nsamples = 1\nvalue = 25000.0"] ;
448 -> 449 ;
450 [label="mse = 0.0\nsamples = 2\nvalue = 24500.0"] ;
448 -> 450 ;
451 [label="mse = 0.0\nsamples = 1\nvalue = 25000.0"] ;
447 -> 451 ;
452 [label="M2 <= 69.0\nmse = 26305555.6\nsamples = 5\nvalue = 26833.3"] ;
424 -> 452 ;
453 [label="M2 <= 64.0\nmse = 4500000.0\nsamples = 3\nvalue = 26000.0"] ;
452 -> 453 ;
454 [label="mse = 0.0\nsamples = 2\nvalue = 27500.0"] ;
453 -> 454 ;
455 [label="mse = 0.0\nsamples = 1\nvalue = 23000.0"] ;
453 -> 455 ;
456 [label="mse = 46722222.2\nsamples = 2\nvalue = 27666.7"] ;
452 -> 456 ;
457 [label="M2 <= 62.5\nmse = 16670255.8\nsamples = 32\nvalue = 22673.2"] ;
423 -> 457 ;
458 [label="BarrioCod2 <= 29.5\nmse = 9472816.6\nsamples = 19\nvalue = 21439.1"] ;
457 -> 458 ;
459 [label="dormitorios <= 2.5\nmse = 4155041.3\nsamples = 10\nvalue = 19836.4"] ;
458 -> 459 ;
460 [label="BarrioCod2 <= 23.5\nmse = 4055600.0\nsamples = 9\nvalue = 19620.0"] ;
459 -> 460 ;
461 [label="Casa <= 0.5\nmse = 5508888.9\nsamples = 3\nvalue = 20766.7"] ;
460 -> 461 ;
462 [label="mse = 0.0\nsamples = 1\nvalue = 19800.0"] ;
461 -> 462 ;
463 [label="mse = 7562500.0\nsamples = 2\nvalue = 21250.0"] ;
461 -> 463 ;
464 [label="Casa <= 0.5\nmse = 2627755.1\nsamples = 6\nvalue = 19128.6"] ;
460 -> 464 ;
465 [label="BarrioCod2 <= 25.5\nmse = 3342500.0\nsamples = 4\nvalue = 19850.0"] ;
464 -> 465 ;
466 [label="mse = 62500.0\nsamples = 2\nvalue = 18750.0"] ;
465 -> 466 ;
467 [label="mse = 4202500.0\nsamples = 2\nvalue = 20950.0"] ;
465 -> 467 ;
468 [label="BarrioCod2 <= 26.5\nmse = 55555.6\nsamples = 2\nvalue = 18166.7"] ;
464 -> 468 ;
469 [label="mse = 0.0\nsamples = 1\nvalue = 18500.0"] ;
468 -> 469 ;
470 [label="mse = 0.0\nsamples = 1\nvalue = 18000.0"] ;
468 -> 470 ;
471 [label="mse = 0.0\nsamples = 1\nvalue = 22000.0"] ;
459 -> 471 ;
472 [label="dormitorios <= 1.5\nmse = 9834097.2\nsamples = 9\nvalue = 22908.3"] ;
458 -> 472 ;
473 [label="mse = 0.0\nsamples = 1\nvalue = 19000.0"] ;
472 -> 473 ;
474 [label="M2 <= 60.5\nmse = 9213223.1\nsamples = 8\nvalue = 23263.6"] ;
472 -> 474 ;
475 [label="DeptoCod <= 5.0\nmse = 12026875.0\nsamples = 6\nvalue = 23675.0"] ;
474 -> 475 ;
476 [label="Casa <= 0.5\nmse = 14000000.0\nsamples = 4\nvalue = 23000.0"] ;
475 -> 476 ;
477 [label="DeptoCod <= 2.0\nmse = 4000000.0\nsamples = 2\nvalue = 21000.0"] ;
476 -> 477 ;
478 [label="mse = 0.0\nsamples = 1\nvalue = 19000.0"] ;
477 -> 478 ;
479 [label="mse = 0.0\nsamples = 1\nvalue = 23000.0"] ;
477 -> 479 ;
480 [label="mse = 16000000.0\nsamples = 2\nvalue = 24000.0"] ;
476 -> 480 ;
481 [label="mse = 640000.0\nsamples = 2\nvalue = 25700.0"] ;
475 -> 481 ;
482 [label="M2 <= 61.5\nmse = 55555.6\nsamples = 2\nvalue = 22166.7"] ;
474 -> 482 ;
483 [label="mse = 0.0\nsamples = 1\nvalue = 22000.0"] ;
482 -> 483 ;
484 [label="mse = 0.0\nsamples = 1\nvalue = 22500.0"] ;
482 -> 484 ;
485 [label="M2 <= 67.5\nmse = 21434722.2\nsamples = 13\nvalue = 24250.0"] ;
457 -> 485 ;
486 [label="BarrioCod2 <= 25.0\nmse = 21624722.2\nsamples = 5\nvalue = 27283.3"] ;
485 -> 486 ;
487 [label="mse = 0.0\nsamples = 1\nvalue = 19000.0"] ;
486 -> 487 ;
488 [label="BarrioCod2 <= 29.5\nmse = 9482400.0\nsamples = 4\nvalue = 28940.0"] ;
486 -> 488 ;
489 [label="M2 <= 64.5\nmse = 826875.0\nsamples = 3\nvalue = 30425.0"] ;
488 -> 489 ;
490 [label="mse = 0.0\nsamples = 2\nvalue = 29900.0"] ;
489 -> 490 ;
491 [label="mse = 0.0\nsamples = 1\nvalue = 32000.0"] ;
489 -> 491 ;
492 [label="mse = 0.0\nsamples = 1\nvalue = 23000.0"] ;
488 -> 492 ;
493 [label="BarrioCod2 <= 32.5\nmse = 14438888.9\nsamples = 8\nvalue = 22733.3"] ;
485 -> 493 ;
494 [label="BarrioCod2 <= 29.5\nmse = 13800000.0\nsamples = 7\nvalue = 23500.0"] ;
493 -> 494 ;
495 [label="dormitorios <= 2.5\nmse = 8785714.3\nsamples = 5\nvalue = 22000.0"] ;
494 -> 495 ;
496 [label="Casa <= 0.5\nmse = 8800000.0\nsamples = 4\nvalue = 23000.0"] ;
495 -> 496 ;
497 [label="mse = 0.0\nsamples = 1\nvalue = 28000.0"] ;
496 -> 497 ;
498 [label="BarrioCod2 <= 25.5\nmse = 3187500.0\nsamples = 3\nvalue = 21750.0"] ;
496 -> 498 ;
499 [label="M2 <= 75.5\nmse = 888888.9\nsamples = 2\nvalue = 22666.7"] ;
498 -> 499 ;
500 [label="mse = 0.0\nsamples = 1\nvalue = 22000.0"] ;
499 -> 500 ;
501 [label="mse = 0.0\nsamples = 1\nvalue = 24000.0"] ;
499 -> 501 ;
502 [label="mse = 0.0\nsamples = 1\nvalue = 19000.0"] ;
498 -> 502 ;
503 [label="mse = 0.0\nsamples = 1\nvalue = 19500.0"] ;
495 -> 503 ;
504 [label="BarrioCod2 <= 31.5\nmse = 8000000.0\nsamples = 2\nvalue = 27000.0"] ;
494 -> 504 ;
505 [label="mse = 0.0\nsamples = 1\nvalue = 29000.0"] ;
504 -> 505 ;
506 [label="mse = 0.0\nsamples = 1\nvalue = 23000.0"] ;
504 -> 506 ;
507 [label="mse = 0.0\nsamples = 1\nvalue = 18900.0"] ;
493 -> 507 ;
508 [label="dormitorios <= 2.5\nmse = 10426388.9\nsamples = 17\nvalue = 25383.3"] ;
406 -> 508 ;
509 [label="BarrioCod2 <= 34.5\nmse = 10665743.9\nsamples = 14\nvalue = 24388.2"] ;
508 -> 509 ;
510 [label="Casa <= 0.5\nmse = 11305124.0\nsamples = 8\nvalue = 23781.8"] ;
509 -> 510 ;
511 [label="M2 <= 72.5\nmse = 11296400.0\nsamples = 7\nvalue = 23460.0"] ;
510 -> 511 ;
512 [label="M2 <= 67.5\nmse = 13379375.0\nsamples = 6\nvalue = 23075.0"] ;
511 -> 512 ;
513 [label="M2 <= 64.0\nmse = 14208163.3\nsamples = 5\nvalue = 23442.9"] ;
512 -> 513 ;
514 [label="M2 <= 61.5\nmse = 15753333.3\nsamples = 4\nvalue = 23100.0"] ;
513 -> 514 ;
515 [label="mse = 17845600.0\nsamples = 3\nvalue = 23520.0"] ;
514 -> 515 ;
516 [label="mse = 0.0\nsamples = 1\nvalue = 21000.0"] ;
514 -> 516 ;
517 [label="mse = 0.0\nsamples = 1\nvalue = 25500.0"] ;
513 -> 517 ;
518 [label="mse = 0.0\nsamples = 1\nvalue = 20500.0"] ;
512 -> 518 ;
519 [label="mse = 0.0\nsamples = 1\nvalue = 25000.0"] ;
511 -> 519 ;
520 [label="mse = 0.0\nsamples = 1\nvalue = 27000.0"] ;
510 -> 520 ;
521 [label="M2 <= 61.5\nmse = 7583333.3\nsamples = 6\nvalue = 25500.0"] ;
509 -> 521 ;
522 [label="M2 <= 58.5\nmse = 7600000.0\nsamples = 5\nvalue = 25000.0"] ;
521 -> 522 ;
523 [label="M2 <= 57.0\nmse = 6687500.0\nsamples = 4\nvalue = 25750.0"] ;
522 -> 523 ;
524 [label="mse = 0.0\nsamples = 1\nvalue = 25000.0"] ;
523 -> 524 ;
525 [label="mse = 8666666.7\nsamples = 3\nvalue = 26000.0"] ;
523 -> 525 ;
526 [label="mse = 0.0\nsamples = 1\nvalue = 22000.0"] ;
522 -> 526 ;
527 [label="mse = 0.0\nsamples = 1\nvalue = 28000.0"] ;
521 -> 527 ;
528 [label="M2 <= 65.0\nmse = 1600000.0\nsamples = 3\nvalue = 27800.0"] ;
508 -> 528 ;
529 [label="mse = 0.0\nsamples = 2\nvalue = 27000.0"] ;
528 -> 529 ;
530 [label="mse = 0.0\nsamples = 1\nvalue = 29800.0"] ;
528 -> 530 ;
531 [label="M2 <= 63.0\nmse = 225000000.0\nsamples = 2\nvalue = 35000.0"] ;
345 -> 531 ;
532 [label="mse = 0.0\nsamples = 1\nvalue = 50000.0"] ;
531 -> 532 ;
533 [label="mse = 0.0\nsamples = 1\nvalue = 20000.0"] ;
531 -> 533 ;
534 [label="M2 <= 71.0\nmse = 17316868.7\nsamples = 41\nvalue = 26435.6"] ;
344 -> 534 ;
535 [label="BarrioCod2 <= 41.5\nmse = 13756425.4\nsamples = 38\nvalue = 25976.8"] ;
534 -> 535 ;
536 [label="Casa <= 0.5\nmse = 8078002.4\nsamples = 20\nvalue = 27231.0"] ;
535 -> 536 ;
537 [label="dormitorios <= 2.5\nmse = 6518979.2\nsamples = 16\nvalue = 26443.5"] ;
536 -> 537 ;
538 [label="dormitorios <= 1.5\nmse = 5348099.2\nsamples = 15\nvalue = 26190.9"] ;
537 -> 538 ;
539 [label="M2 <= 62.5\nmse = 2166666.7\nsamples = 3\nvalue = 23500.0"] ;
538 -> 539 ;
540 [label="mse = 0.0\nsamples = 1\nvalue = 21500.0"] ;
539 -> 540 ;
541 [label="M2 <= 67.5\nmse = 250000.0\nsamples = 2\nvalue = 24500.0"] ;
539 -> 541 ;
542 [label="mse = 0.0\nsamples = 1\nvalue = 24000.0"] ;
541 -> 542 ;
543 [label="mse = 0.0\nsamples = 1\nvalue = 25000.0"] ;
541 -> 543 ;
544 [label="M2 <= 61.0\nmse = 4526592.8\nsamples = 12\nvalue = 26615.8"] ;
538 -> 544 ;
545 [label="M2 <= 58.5\nmse = 8034722.2\nsamples = 5\nvalue = 25416.7"] ;
544 -> 545 ;
546 [label="mse = 0.0\nsamples = 2\nvalue = 28000.0"] ;
545 -> 546 ;
547 [label="BarrioCod2 <= 40.5\nmse = 2722222.2\nsamples = 3\nvalue = 22833.3"] ;
545 -> 547 ;
548 [label="mse = 3062500.0\nsamples = 2\nvalue = 22250.0"] ;
547 -> 548 ;
549 [label="mse = 0.0\nsamples = 1\nvalue = 24000.0"] ;
547 -> 549 ;
550 [label="M2 <= 69.0\nmse = 1937514.8\nsamples = 7\nvalue = 27169.2"] ;
544 -> 550 ;
551 [label="BarrioCod2 <= 40.5\nmse = 9876.5\nsamples = 4\nvalue = 27911.1"] ;
550 -> 551 ;
552 [label="mse = 0.0\nsamples = 2\nvalue = 28000.0"] ;
551 -> 552 ;
553 [label="M2 <= 63.0\nmse = 6400.0\nsamples = 2\nvalue = 27840.0"] ;
551 -> 553 ;
554 [label="mse = 0.0\nsamples = 1\nvalue = 28000.0"] ;
553 -> 554 ;
555 [label="mse = 0.0\nsamples = 1\nvalue = 27800.0"] ;
553 -> 555 ;
556 [label="mse = 2250000.0\nsamples = 3\nvalue = 25500.0"] ;
550 -> 556 ;
557 [label="mse = 0.0\nsamples = 1\nvalue = 32000.0"] ;
537 -> 557 ;
558 [label="M2 <= 62.0\nmse = 2562500.0\nsamples = 4\nvalue = 30250.0"] ;
536 -> 558 ;
559 [label="dormitorios <= 1.5\nmse = 2000000.0\nsamples = 2\nvalue = 29000.0"] ;
558 -> 559 ;
560 [label="mse = 0.0\nsamples = 1\nvalue = 30000.0"] ;
559 -> 560 ;
561 [label="mse = 0.0\nsamples = 1\nvalue = 27000.0"] ;
559 -> 561 ;
562 [label="mse = 0.0\nsamples = 2\nvalue = 31500.0"] ;
558 -> 562 ;
563 [label="BarrioCod2 <= 43.0\nmse = 16350973.9\nsamples = 18\nvalue = 24629.6"] ;
535 -> 563 ;
564 [label="Casa <= 0.5\nmse = 1234710.7\nsamples = 8\nvalue = 22472.7"] ;
563 -> 564 ;
565 [label="M2 <= 59.0\nmse = 906100.0\nsamples = 7\nvalue = 22270.0"] ;
564 -> 565 ;
566 [label="mse = 0.0\nsamples = 1\nvalue = 23100.0"] ;
565 -> 566 ;
567 [label="M2 <= 61.0\nmse = 917343.8\nsamples = 6\nvalue = 22062.5"] ;
565 -> 567 ;
568 [label="mse = 1722222.2\nsamples = 3\nvalue = 21833.3"] ;
567 -> 568 ;
569 [label="M2 <= 66.0\nmse = 384000.0\nsamples = 3\nvalue = 22200.0"] ;
567 -> 569 ;
570 [label="mse = 0.0\nsamples = 1\nvalue = 22800.0"] ;
569 -> 570 ;
571 [label="mse = 367500.0\nsamples = 2\nvalue = 22050.0"] ;
569 -> 571 ;
572 [label="mse = 0.0\nsamples = 1\nvalue = 24500.0"] ;
564 -> 572 ;
573 [label="BarrioCod2 <= 44.5\nmse = 21346093.8\nsamples = 10\nvalue = 26112.5"] ;
563 -> 573 ;
574 [label="mse = 0.0\nsamples = 1\nvalue = 38000.0"] ;
573 -> 574 ;
575 [label="BarrioCod2 <= 51.0\nmse = 1324081.6\nsamples = 9\nvalue = 24414.3"] ;
573 -> 575 ;
576 [label="DeptoCod <= 6.5\nmse = 513888.9\nsamples = 7\nvalue = 24166.7"] ;
575 -> 576 ;
577 [label="mse = 0.0\nsamples = 1\nvalue = 25000.0"] ;
576 -> 577 ;
578 [label="M2 <= 59.0\nmse = 450000.0\nsamples = 6\nvalue = 24000.0"] ;
576 -> 578 ;
579 [label="mse = 0.0\nsamples = 1\nvalue = 25000.0"] ;
578 -> 579 ;
580 [label="M2 <= 67.5\nmse = 250000.0\nsamples = 5\nvalue = 23750.0"] ;
578 -> 580 ;
581 [label="dormitorios <= 3.0\nmse = 193877.6\nsamples = 4\nvalue = 23857.1"] ;
580 -> 581 ;
582 [label="Casa <= 0.5\nmse = 200000.0\nsamples = 3\nvalue = 24000.0"] ;
581 -> 582 ;
583 [label="mse = 250000.0\nsamples = 2\nvalue = 24000.0"] ;
582 -> 583 ;
584 [label="mse = 0.0\nsamples = 1\nvalue = 24000.0"] ;
582 -> 584 ;
585 [label="mse = 0.0\nsamples = 1\nvalue = 23500.0"] ;
581 -> 585 ;
586 [label="mse = 0.0\nsamples = 1\nvalue = 23000.0"] ;
580 -> 586 ;
587 [label="mse = 3610000.0\nsamples = 2\nvalue = 25900.0"] ;
575 -> 587 ;
588 [label="dormitorios <= 2.5\nmse = 6500000.0\nsamples = 3\nvalue = 35000.0"] ;
534 -> 588 ;
589 [label="BarrioCod2 <= 42.0\nmse = 562500.0\nsamples = 2\nvalue = 33250.0"] ;
588 -> 589 ;
590 [label="mse = 0.0\nsamples = 1\nvalue = 32500.0"] ;
589 -> 590 ;
591 [label="mse = 0.0\nsamples = 1\nvalue = 34000.0"] ;
589 -> 591 ;
592 [label="mse = 0.0\nsamples = 1\nvalue = 38500.0"] ;
588 -> 592 ;
593 [label="BarrioCod2 <= 34.5\nmse = 80542139.6\nsamples = 72\nvalue = 30524.2"] ;
1 -> 593 ;
594 [label="BarrioCod2 <= 11.0\nmse = 85096859.0\nsamples = 45\nvalue = 28114.6"] ;
593 -> 594 ;
595 [label="dormitorios <= 2.5\nmse = 159292066.0\nsamples = 11\nvalue = 34595.8"] ;
594 -> 595 ;
596 [label="M2 <= 81.5\nmse = 13760000.0\nsamples = 3\nvalue = 52200.0"] ;
595 -> 596 ;
597 [label="mse = 0.0\nsamples = 1\nvalue = 45000.0"] ;
596 -> 597 ;
598 [label="M2 <= 87.5\nmse = 1000000.0\nsamples = 2\nvalue = 54000.0"] ;
596 -> 598 ;
599 [label="mse = 0.0\nsamples = 1\nvalue = 53000.0"] ;
598 -> 599 ;
600 [label="mse = 0.0\nsamples = 1\nvalue = 55000.0"] ;
598 -> 600 ;
601 [label="BarrioCod2 <= 9.0\nmse = 94573905.8\nsamples = 8\nvalue = 29963.2"] ;
595 -> 601 ;
602 [label="BarrioCod2 <= 5.0\nmse = 973600.0\nsamples = 6\nvalue = 26220.0"] ;
601 -> 602 ;
603 [label="Casa <= 0.5\nmse = 1576875.0\nsamples = 2\nvalue = 27325.0"] ;
602 -> 603 ;
604 [label="mse = 0.0\nsamples = 1\nvalue = 26600.0"] ;
603 -> 604 ;
605 [label="mse = 0.0\nsamples = 1\nvalue = 29500.0"] ;
603 -> 605 ;
606 [label="M2 <= 97.5\nmse = 148760.3\nsamples = 4\nvalue = 25818.2"] ;
602 -> 606 ;
607 [label="mse = 0.0\nsamples = 3\nvalue = 26000.0"] ;
606 -> 607 ;
608 [label="mse = 0.0\nsamples = 1\nvalue = 25000.0"] ;
606 -> 608 ;
609 [label="M2 <= 95.0\nmse = 196000000.0\nsamples = 2\nvalue = 44000.0"] ;
601 -> 609 ;
610 [label="mse = 0.0\nsamples = 1\nvalue = 58000.0"] ;
609 -> 610 ;
611 [label="mse = 0.0\nsamples = 1\nvalue = 30000.0"] ;
609 -> 611 ;
612 [label="dormitorios <= 2.5\nmse = 29821168.3\nsamples = 34\nvalue = 25432.8"] ;
594 -> 612 ;
613 [label="BarrioCod2 <= 26.0\nmse = 28948014.3\nsamples = 19\nvalue = 23048.3"] ;
612 -> 613 ;
614 [label="M2 <= 95.0\nmse = 10708808.9\nsamples = 12\nvalue = 21152.6"] ;
613 -> 614 ;
615 [label="Casa <= 0.5\nmse = 6513066.7\nsamples = 10\nvalue = 20260.0"] ;
614 -> 615 ;
616 [label="BarrioCod2 <= 13.5\nmse = 10800000.0\nsamples = 3\nvalue = 22000.0"] ;
615 -> 616 ;
617 [label="mse = 0.0\nsamples = 1\nvalue = 18000.0"] ;
616 -> 617 ;
618 [label="M2 <= 85.0\nmse = 222222.2\nsamples = 2\nvalue = 24666.7"] ;
616 -> 618 ;
619 [label="mse = 0.0\nsamples = 1\nvalue = 24000.0"] ;
618 -> 619 ;
620 [label="mse = 0.0\nsamples = 1\nvalue = 25000.0"] ;
618 -> 620 ;
621 [label="BarrioCod2 <= 24.5\nmse = 2098900.0\nsamples = 7\nvalue = 19390.0"] ;
615 -> 621 ;
622 [label="M2 <= 82.5\nmse = 2019843.8\nsamples = 6\nvalue = 19737.5"] ;
621 -> 622 ;
623 [label="BarrioCod2 <= 21.5\nmse = 1897600.0\nsamples = 3\nvalue = 20380.0"] ;
622 -> 623 ;
624 [label="mse = 0.0\nsamples = 1\nvalue = 20000.0"] ;
623 -> 624 ;
625 [label="mse = 4202500.0\nsamples = 2\nvalue = 20950.0"] ;
623 -> 625 ;
626 [label="BarrioCod2 <= 15.5\nmse = 388888.9\nsamples = 3\nvalue = 18666.7"] ;
622 -> 626 ;
627 [label="mse = 0.0\nsamples = 1\nvalue = 18000.0"] ;
626 -> 627 ;
628 [label="BarrioCod2 <= 17.0\nmse = 250000.0\nsamples = 2\nvalue = 19000.0"] ;
626 -> 628 ;
629 [label="mse = 0.0\nsamples = 1\nvalue = 19500.0"] ;
628 -> 629 ;
630 [label="mse = 0.0\nsamples = 1\nvalue = 18500.0"] ;
628 -> 630 ;
631 [label="mse = 0.0\nsamples = 1\nvalue = 18000.0"] ;
621 -> 631 ;
632 [label="Casa <= 0.5\nmse = 12250000.0\nsamples = 2\nvalue = 24500.0"] ;
614 -> 632 ;
633 [label="mse = 0.0\nsamples = 1\nvalue = 21000.0"] ;
632 -> 633 ;
634 [label="mse = 0.0\nsamples = 1\nvalue = 28000.0"] ;
632 -> 634 ;
635 [label="BarrioCod2 <= 29.5\nmse = 43802500.0\nsamples = 7\nvalue = 26650.0"] ;
613 -> 635 ;
636 [label="M2 <= 87.5\nmse = 8640000.0\nsamples = 2\nvalue = 32600.0"] ;
635 -> 636 ;
637 [label="mse = 0.0\nsamples = 1\nvalue = 35000.0"] ;
636 -> 637 ;
638 [label="mse = 0.0\nsamples = 1\nvalue = 29000.0"] ;
636 -> 638 ;
639 [label="BarrioCod2 <= 33.0\nmse = 8160000.0\nsamples = 5\nvalue = 20700.0"] ;
635 -> 639 ;
640 [label="M2 <= 96.0\nmse = 1421875.0\nsamples = 4\nvalue = 19375.0"] ;
639 -> 640 ;
641 [label="M2 <= 90.0\nmse = 250000.0\nsamples = 2\nvalue = 20500.0"] ;
640 -> 641 ;
642 [label="mse = 0.0\nsamples = 1\nvalue = 21000.0"] ;
641 -> 642 ;
643 [label="mse = 0.0\nsamples = 1\nvalue = 20000.0"] ;
641 -> 643 ;
644 [label="DeptoCod <= 2.0\nmse = 62500.0\nsamples = 2\nvalue = 18250.0"] ;
640 -> 644 ;
645 [label="mse = 0.0\nsamples = 1\nvalue = 18000.0"] ;
644 -> 645 ;
646 [label="mse = 0.0\nsamples = 1\nvalue = 18500.0"] ;
644 -> 646 ;
647 [label="mse = 0.0\nsamples = 1\nvalue = 26000.0"] ;
639 -> 647 ;
648 [label="DeptoCod <= 2.0\nmse = 19322806.2\nsamples = 15\nvalue = 27817.2"] ;
612 -> 648 ;
649 [label="dormitorios <= 4.0\nmse = 640000.0\nsamples = 2\nvalue = 33600.0"] ;
648 -> 649 ;
650 [label="mse = 0.0\nsamples = 1\nvalue = 34000.0"] ;
649 -> 650 ;
651 [label="mse = 0.0\nsamples = 1\nvalue = 32000.0"] ;
649 -> 651 ;
652 [label="Casa <= 0.5\nmse = 14796927.1\nsamples = 13\nvalue = 26612.5"] ;
648 -> 652 ;
653 [label="BarrioCod2 <= 13.5\nmse = 11820136.1\nsamples = 11\nvalue = 27371.4"] ;
652 -> 653 ;
654 [label="M2 <= 85.0\nmse = 7675802.5\nsamples = 5\nvalue = 25644.4"] ;
653 -> 654 ;
655 [label="mse = 0.0\nsamples = 1\nvalue = 30000.0"] ;
654 -> 655 ;
656 [label="M2 <= 100.0\nmse = 2900000.0\nsamples = 4\nvalue = 24400.0"] ;
654 -> 656 ;
657 [label="M2 <= 91.5\nmse = 274400.0\nsamples = 3\nvalue = 23360.0"] ;
656 -> 657 ;
658 [label="mse = 0.0\nsamples = 1\nvalue = 24000.0"] ;
657 -> 658 ;
659 [label="M2 <= 94.0\nmse = 2222.2\nsamples = 2\nvalue = 22933.3"] ;
657 -> 659 ;
660 [label="mse = 0.0\nsamples = 1\nvalue = 22900.0"] ;
659 -> 660 ;
661 [label="mse = 0.0\nsamples = 1\nvalue = 23000.0"] ;
659 -> 661 ;
662 [label="mse = 0.0\nsamples = 1\nvalue = 27000.0"] ;
656 -> 662 ;
663 [label="BarrioCod2 <= 24.5\nmse = 11013888.9\nsamples = 6\nvalue = 28666.7"] ;
653 -> 663 ;
664 [label="M2 <= 93.0\nmse = 4984375.0\nsamples = 4\nvalue = 30625.0"] ;
663 -> 664 ;
665 [label="M2 <= 80.0\nmse = 2560000.0\nsamples = 3\nvalue = 29200.0"] ;
664 -> 665 ;
666 [label="mse = 0.0\nsamples = 1\nvalue = 26000.0"] ;
665 -> 666 ;
667 [label="mse = 0.0\nsamples = 2\nvalue = 30000.0"] ;
665 -> 667 ;
668 [label="mse = 0.0\nsamples = 1\nvalue = 33000.0"] ;
664 -> 668 ;
669 [label="DeptoCod <= 5.0\nmse = 62500.0\nsamples = 2\nvalue = 24750.0"] ;
663 -> 669 ;
670 [label="mse = 0.0\nsamples = 1\nvalue = 25000.0"] ;
669 -> 670 ;
671 [label="mse = 0.0\nsamples = 1\nvalue = 24500.0"] ;
669 -> 671 ;
672 [label="BarrioCod2 <= 20.5\nmse = 3380000.0\nsamples = 2\nvalue = 21300.0"] ;
652 -> 672 ;
673 [label="mse = 0.0\nsamples = 1\nvalue = 20000.0"] ;
672 -> 673 ;
674 [label="mse = 0.0\nsamples = 1\nvalue = 23900.0"] ;
672 -> 674 ;
675 [label="Casa <= 0.5\nmse = 47933824.0\nsamples = 27\nvalue = 34476.0"] ;
593 -> 675 ;
676 [label="M2 <= 79.0\nmse = 30881814.6\nsamples = 19\nvalue = 36815.4"] ;
675 -> 676 ;
677 [label="BarrioCod2 <= 45.5\nmse = 19635555.6\nsamples = 2\nvalue = 25733.3"] ;
676 -> 677 ;
678 [label="mse = 0.0\nsamples = 1\nvalue = 22600.0"] ;
677 -> 678 ;
679 [label="mse = 0.0\nsamples = 1\nvalue = 32000.0"] ;
677 -> 679 ;
680 [label="BarrioCod2 <= 42.0\nmse = 20731821.0\nsamples = 17\nvalue = 37738.9"] ;
676 -> 680 ;
681 [label="dormitorios <= 2.5\nmse = 13588256.0\nsamples = 12\nvalue = 36688.0"] ;
680 -> 681 ;
682 [label="mse = 0.0\nsamples = 1\nvalue = 27000.0"] ;
681 -> 682 ;
683 [label="M2 <= 86.5\nmse = 10080763.9\nsamples = 11\nvalue = 37091.7"] ;
681 -> 683 ;
684 [label="M2 <= 83.5\nmse = 9160000.0\nsamples = 3\nvalue = 35100.0"] ;
683 -> 684 ;
685 [label="M2 <= 81.0\nmse = 2722222.2\nsamples = 2\nvalue = 36166.7"] ;
684 -> 685 ;
686 [label="mse = 0.0\nsamples = 1\nvalue = 38500.0"] ;
685 -> 686 ;
687 [label="mse = 0.0\nsamples = 1\nvalue = 35000.0"] ;
685 -> 687 ;
688 [label="mse = 0.0\nsamples = 1\nvalue = 28700.0"] ;
684 -> 688 ;
689 [label="M2 <= 100.5\nmse = 8153979.2\nsamples = 8\nvalue = 37911.8"] ;
683 -> 689 ;
690 [label="M2 <= 89.5\nmse = 4626666.7\nsamples = 6\nvalue = 38300.0"] ;
689 -> 690 ;
691 [label="BarrioCod2 <= 37.5\nmse = 46875.0\nsamples = 2\nvalue = 39625.0"] ;
690 -> 691 ;
692 [label="mse = 0.0\nsamples = 1\nvalue = 40000.0"] ;
691 -> 692 ;
693 [label="mse = 0.0\nsamples = 1\nvalue = 39500.0"] ;
691 -> 693 ;
694 [label="M2 <= 92.0\nmse = 5421487.6\nsamples = 4\nvalue = 37818.2"] ;
690 -> 694 ;
695 [label="mse = 0.0\nsamples = 1\nvalue = 35000.0"] ;
694 -> 695 ;
696 [label="M2 <= 94.5\nmse = 3359375.0\nsamples = 3\nvalue = 38875.0"] ;
694 -> 696 ;
697 [label="mse = 0.0\nsamples = 1\nvalue = 42000.0"] ;
696 -> 697 ;
698 [label="M2 <= 97.5\nmse = 138888.9\nsamples = 2\nvalue = 37833.3"] ;
696 -> 698 ;
699 [label="mse = 0.0\nsamples = 1\nvalue = 38000.0"] ;
698 -> 699 ;
700 [label="mse = 0.0\nsamples = 1\nvalue = 37000.0"] ;
698 -> 700 ;
701 [label="dormitorios <= 3.5\nmse = 25000000.0\nsamples = 2\nvalue = 35000.0"] ;
689 -> 701 ;
702 [label="mse = 0.0\nsamples = 1\nvalue = 40000.0"] ;
701 -> 702 ;
703 [label="mse = 0.0\nsamples = 1\nvalue = 30000.0"] ;
701 -> 703 ;
704 [label="M2 <= 93.0\nmse = 28752892.6\nsamples = 5\nvalue = 40127.3"] ;
680 -> 704 ;
705 [label="BarrioCod2 <= 46.5\nmse = 20906400.0\nsamples = 4\nvalue = 39140.0"] ;
704 -> 705 ;
706 [label="M2 <= 82.5\nmse = 10283950.6\nsamples = 3\nvalue = 40277.8"] ;
705 -> 706 ;
707 [label="mse = 0.0\nsamples = 1\nvalue = 36000.0"] ;
706 -> 707 ;
708 [label="dormitorios <= 2.5\nmse = 1701388.9\nsamples = 2\nvalue = 42416.7"] ;
706 -> 708 ;
709 [label="mse = 0.0\nsamples = 1\nvalue = 43000.0"] ;
708 -> 709 ;
710 [label="mse = 0.0\nsamples = 1\nvalue = 39500.0"] ;
708 -> 710 ;
711 [label="mse = 0.0\nsamples = 1\nvalue = 28900.0"] ;
705 -> 711 ;
712 [label="mse = 0.0\nsamples = 1\nvalue = 50000.0"] ;
704 -> 712 ;
713 [label="M2 <= 86.0\nmse = 20194214.9\nsamples = 8\nvalue = 26181.8"] ;
675 -> 713 ;
714 [label="BarrioCod2 <= 41.0\nmse = 9187500.0\nsamples = 2\nvalue = 30250.0"] ;
713 -> 714 ;
715 [label="mse = 0.0\nsamples = 1\nvalue = 32000.0"] ;
714 -> 715 ;
716 [label="mse = 0.0\nsamples = 1\nvalue = 25000.0"] ;
714 -> 716 ;
717 [label="BarrioCod2 <= 37.0\nmse = 11622449.0\nsamples = 6\nvalue = 23857.1"] ;
713 -> 717 ;
718 [label="mse = 0.0\nsamples = 1\nvalue = 18000.0"] ;
717 -> 718 ;
719 [label="M2 <= 97.5\nmse = 6888888.9\nsamples = 5\nvalue = 24833.3"] ;
717 -> 719 ;
720 [label="BarrioCod2 <= 50.5\nmse = 4100000.0\nsamples = 4\nvalue = 24000.0"] ;
719 -> 720 ;
721 [label="BarrioCod2 <= 47.5\nmse = 7562500.0\nsamples = 2\nvalue = 22750.0"] ;
720 -> 721 ;
722 [label="mse = 0.0\nsamples = 1\nvalue = 25500.0"] ;
721 -> 722 ;
723 [label="mse = 0.0\nsamples = 1\nvalue = 20000.0"] ;
721 -> 723 ;
724 [label="dormitorios <= 2.5\nmse = 55555.6\nsamples = 2\nvalue = 24833.3"] ;
720 -> 724 ;
725 [label="mse = 0.0\nsamples = 1\nvalue = 25000.0"] ;
724 -> 725 ;
726 [label="mse = 0.0\nsamples = 1\nvalue = 24500.0"] ;
724 -> 726 ;
727 [label="mse = 0.0\nsamples = 1\nvalue = 29000.0"] ;
719 -> 727 ;
728 [label="dormitorios <= 8.0\nmse = 195791219.4\nsamples = 71\nvalue = 42395.6"] ;
0 -> 728 [labeldistance=2.5, labelangle=-45, headlabel="False"] ;
729 [label="BarrioCod2 <= 39.0\nmse = 180104906.6\nsamples = 68\nvalue = 41349.1"] ;
728 -> 729 ;
730 [label="M2 <= 280.0\nmse = 171778272.8\nsamples = 53\nvalue = 39052.2"] ;
729 -> 730 ;
731 [label="BarrioCod2 <= 25.5\nmse = 107719182.8\nsamples = 43\nvalue = 36994.7"] ;
730 -> 731 ;
732 [label="M2 <= 187.0\nmse = 93447280.3\nsamples = 31\nvalue = 34791.8"] ;
731 -> 732 ;
733 [label="M2 <= 158.5\nmse = 60589702.2\nsamples = 23\nvalue = 32876.3"] ;
732 -> 733 ;
734 [label="dormitorios <= 2.5\nmse = 55554630.6\nsamples = 19\nvalue = 34661.3"] ;
733 -> 734 ;
735 [label="BarrioCod2 <= 9.0\nmse = 47371093.8\nsamples = 4\nvalue = 26812.5"] ;
734 -> 735 ;
736 [label="mse = 0.0\nsamples = 1\nvalue = 38000.0"] ;
735 -> 736 ;
737 [label="M2 <= 145.0\nmse = 7534722.2\nsamples = 3\nvalue = 23083.3"] ;
735 -> 737 ;
738 [label="M2 <= 130.0\nmse = 562500.0\nsamples = 2\nvalue = 19250.0"] ;
737 -> 738 ;
739 [label="mse = 0.0\nsamples = 1\nvalue = 18500.0"] ;
738 -> 739 ;
740 [label="mse = 0.0\nsamples = 1\nvalue = 20000.0"] ;
738 -> 740 ;
741 [label="mse = 0.0\nsamples = 1\nvalue = 25000.0"] ;
737 -> 741 ;
742 [label="M2 <= 127.5\nmse = 29520794.0\nsamples = 15\nvalue = 37391.3"] ;
734 -> 742 ;
743 [label="M2 <= 115.0\nmse = 17340000.0\nsamples = 3\nvalue = 31600.0"] ;
742 -> 743 ;
744 [label="mse = 0.0\nsamples = 1\nvalue = 35000.0"] ;
743 -> 744 ;
745 [label="M2 <= 122.5\nmse = 16055555.6\nsamples = 2\nvalue = 29333.3"] ;
743 -> 745 ;
746 [label="mse = 0.0\nsamples = 1\nvalue = 26500.0"] ;
745 -> 746 ;
747 [label="mse = 0.0\nsamples = 1\nvalue = 35000.0"] ;
745 -> 747 ;
748 [label="M2 <= 153.5\nmse = 21000000.0\nsamples = 12\nvalue = 39000.0"] ;
742 -> 748 ;
749 [label="BarrioCod2 <= 23.5\nmse = 18562500.0\nsamples = 11\nvalue = 39750.0"] ;
748 -> 749 ;
750 [label="BarrioCod2 <= 10.0\nmse = 12330578.5\nsamples = 8\nvalue = 41181.8"] ;
749 -> 750 ;
751 [label="dormitorios <= 4.0\nmse = 2000000.0\nsamples = 2\nvalue = 43000.0"] ;
750 -> 751 ;
752 [label="mse = 0.0\nsamples = 1\nvalue = 45000.0"] ;
751 -> 752 ;
753 [label="mse = 0.0\nsamples = 1\nvalue = 42000.0"] ;
751 -> 753 ;
754 [label="M2 <= 145.5\nmse = 14500000.0\nsamples = 6\nvalue = 40500.0"] ;
750 -> 754 ;
755 [label="BarrioCod2 <= 20.0\nmse = 13360000.0\nsamples = 4\nvalue = 42200.0"] ;
754 -> 755 ;
756 [label="M2 <= 138.0\nmse = 13555555.6\nsamples = 3\nvalue = 40333.3"] ;
755 -> 756 ;
757 [label="Casa <= 0.5\nmse = 4000000.0\nsamples = 2\nvalue = 38000.0"] ;
756 -> 757 ;
758 [label="mse = 0.0\nsamples = 1\nvalue = 36000.0"] ;
757 -> 758 ;
759 [label="mse = 0.0\nsamples = 1\nvalue = 40000.0"] ;
757 -> 759 ;
760 [label="mse = 0.0\nsamples = 1\nvalue = 45000.0"] ;
756 -> 760 ;
761 [label="mse = 0.0\nsamples = 1\nvalue = 45000.0"] ;
755 -> 761 ;
762 [label="dormitorios <= 4.0\nmse = 3555555.6\nsamples = 2\nvalue = 37666.7"] ;
754 -> 762 ;
763 [label="mse = 0.0\nsamples = 1\nvalue = 39000.0"] ;
762 -> 763 ;
764 [label="mse = 0.0\nsamples = 1\nvalue = 35000.0"] ;
762 -> 764 ;
765 [label="M2 <= 149.0\nmse = 17840000.0\nsamples = 3\nvalue = 36600.0"] ;
749 -> 765 ;
766 [label="M2 <= 145.0\nmse = 22222222.2\nsamples = 2\nvalue = 38333.3"] ;
765 -> 766 ;
767 [label="mse = 0.0\nsamples = 1\nvalue = 35000.0"] ;
766 -> 767 ;
768 [label="mse = 0.0\nsamples = 1\nvalue = 45000.0"] ;
766 -> 768 ;
769 [label="mse = 0.0\nsamples = 1\nvalue = 34000.0"] ;
765 -> 769 ;
770 [label="mse = 0.0\nsamples = 1\nvalue = 33000.0"] ;
748 -> 770 ;
771 [label="Casa <= 0.5\nmse = 6290612.2\nsamples = 4\nvalue = 24971.4"] ;
733 -> 771 ;
772 [label="dormitorios <= 3.5\nmse = 2138888.9\nsamples = 3\nvalue = 25833.3"] ;
771 -> 772 ;
773 [label="M2 <= 176.0\nmse = 160000.0\nsamples = 2\nvalue = 25200.0"] ;
772 -> 773 ;
774 [label="mse = 0.0\nsamples = 1\nvalue = 26000.0"] ;
773 -> 774 ;
775 [label="mse = 0.0\nsamples = 1\nvalue = 25000.0"] ;
773 -> 775 ;
776 [label="mse = 0.0\nsamples = 1\nvalue = 29000.0"] ;
772 -> 776 ;
777 [label="mse = 0.0\nsamples = 1\nvalue = 19800.0"] ;
771 -> 777 ;
778 [label="M2 <= 210.0\nmse = 150491735.5\nsamples = 8\nvalue = 41409.1"] ;
732 -> 778 ;
779 [label="M2 <= 197.0\nmse = 888888.9\nsamples = 2\nvalue = 57333.3"] ;
778 -> 779 ;
780 [label="mse = 0.0\nsamples = 1\nvalue = 58000.0"] ;
779 -> 780 ;
781 [label="mse = 0.0\nsamples = 1\nvalue = 56000.0"] ;
779 -> 781 ;
782 [label="BarrioCod2 <= 14.0\nmse = 75839843.8\nsamples = 6\nvalue = 35437.5"] ;
778 -> 782 ;
783 [label="M2 <= 255.0\nmse = 45046875.0\nsamples = 3\nvalue = 28875.0"] ;
782 -> 783 ;
784 [label="mse = 0.0\nsamples = 2\nvalue = 25000.0"] ;
783 -> 784 ;
785 [label="mse = 0.0\nsamples = 1\nvalue = 40500.0"] ;
783 -> 785 ;
786 [label="Casa <= 0.5\nmse = 20500000.0\nsamples = 3\nvalue = 42000.0"] ;
782 -> 786 ;
787 [label="mse = 0.0\nsamples = 1\nvalue = 49000.0"] ;
786 -> 787 ;
788 [label="M2 <= 247.0\nmse = 5555555.6\nsamples = 2\nvalue = 39666.7"] ;
786 -> 788 ;
789 [label="mse = 0.0\nsamples = 1\nvalue = 43000.0"] ;
788 -> 789 ;
790 [label="mse = 0.0\nsamples = 1\nvalue = 38000.0"] ;
788 -> 790 ;
791 [label="BarrioCod2 <= 35.5\nmse = 108830315.5\nsamples = 12\nvalue = 40992.6"] ;
731 -> 791 ;
792 [label="BarrioCod2 <= 29.5\nmse = 80109097.2\nsamples = 10\nvalue = 43158.3"] ;
791 -> 792 ;
793 [label="mse = 0.0\nsamples = 1\nvalue = 55000.0"] ;
792 -> 793 ;
794 [label="M2 <= 127.5\nmse = 62476900.0\nsamples = 9\nvalue = 40790.0"] ;
792 -> 794 ;
795 [label="dormitorios <= 3.5\nmse = 268888.9\nsamples = 2\nvalue = 35633.3"] ;
794 -> 795 ;
796 [label="mse = 0.0\nsamples = 1\nvalue = 36000.0"] ;
795 -> 796 ;
797 [label="mse = 0.0\nsamples = 1\nvalue = 34900.0"] ;
795 -> 797 ;
798 [label="Casa <= 0.5\nmse = 72857142.9\nsamples = 7\nvalue = 43000.0"] ;
794 -> 798 ;
799 [label="mse = 0.0\nsamples = 1\nvalue = 33000.0"] ;
798 -> 799 ;
800 [label="M2 <= 197.5\nmse = 65555555.6\nsamples = 6\nvalue = 44666.7"] ;
798 -> 800 ;
801 [label="M2 <= 160.0\nmse = 50617284.0\nsamples = 4\nvalue = 47222.2"] ;
800 -> 801 ;
802 [label="dormitorios <= 3.5\nmse = 42857142.9\nsamples = 3\nvalue = 45000.0"] ;
801 -> 802 ;
803 [label="DeptoCod <= 4.0\nmse = 42187500.0\nsamples = 2\nvalue = 41250.0"] ;
802 -> 803 ;
804 [label="mse = 0.0\nsamples = 1\nvalue = 30000.0"] ;
803 -> 804 ;
805 [label="mse = 0.0\nsamples = 1\nvalue = 45000.0"] ;
803 -> 805 ;
806 [label="mse = 0.0\nsamples = 1\nvalue = 50000.0"] ;
802 -> 806 ;
807 [label="mse = 0.0\nsamples = 1\nvalue = 55000.0"] ;
801 -> 807 ;
808 [label="M2 <= 232.5\nmse = 32000000.0\nsamples = 2\nvalue = 37000.0"] ;
800 -> 808 ;
809 [label="mse = 0.0\nsamples = 1\nvalue = 33000.0"] ;
808 -> 809 ;
810 [label="mse = 0.0\nsamples = 1\nvalue = 45000.0"] ;
808 -> 810 ;
811 [label="dormitorios <= 2.5\nmse = 888888.9\nsamples = 2\nvalue = 23666.7"] ;
791 -> 811 ;
812 [label="mse = 0.0\nsamples = 1\nvalue = 25000.0"] ;
811 -> 812 ;
813 [label="mse = 0.0\nsamples = 1\nvalue = 23000.0"] ;
811 -> 813 ;
814 [label="M2 <= 500.0\nmse = 371795969.4\nsamples = 10\nvalue = 50221.4"] ;
730 -> 814 ;
815 [label="dormitorios <= 2.5\nmse = 219848099.2\nsamples = 7\nvalue = 57509.1"] ;
814 -> 815 ;
816 [label="BarrioCod2 <= 27.0\nmse = 227947500.0\nsamples = 3\nvalue = 46150.0"] ;
815 -> 816 ;
817 [label="BarrioCod2 <= 19.0\nmse = 8888.9\nsamples = 2\nvalue = 54866.7"] ;
816 -> 817 ;
818 [label="mse = 0.0\nsamples = 1\nvalue = 54800.0"] ;
817 -> 818 ;
819 [label="mse = 0.0\nsamples = 1\nvalue = 55000.0"] ;
817 -> 819 ;
820 [label="mse = 0.0\nsamples = 1\nvalue = 20000.0"] ;
816 -> 820 ;
821 [label="dormitorios <= 5.0\nmse = 99357142.9\nsamples = 4\nvalue = 64000.0"] ;
815 -> 821 ;
822 [label="BarrioCod2 <= 14.5\nmse = 45722222.2\nsamples = 3\nvalue = 67166.7"] ;
821 -> 822 ;
823 [label="mse = 0.0\nsamples = 1\nvalue = 58500.0"] ;
822 -> 823 ;
824 [label="DeptoCod <= 4.0\nmse = 12250000.0\nsamples = 2\nvalue = 71500.0"] ;
822 -> 824 ;
825 [label="mse = 0.0\nsamples = 1\nvalue = 68000.0"] ;
824 -> 825 ;
826 [label="mse = 0.0\nsamples = 1\nvalue = 75000.0"] ;
824 -> 826 ;
827 [label="mse = 0.0\nsamples = 1\nvalue = 45000.0"] ;
821 -> 827 ;
828 [label="BarrioCod2 <= 16.5\nmse = 20166666.7\nsamples = 3\nvalue = 23500.0"] ;
814 -> 828 ;
829 [label="mse = 0.0\nsamples = 1\nvalue = 18000.0"] ;
828 -> 829 ;
830 [label="M2 <= 5855.5\nmse = 7562500.0\nsamples = 2\nvalue = 26250.0"] ;
828 -> 830 ;
831 [label="mse = 0.0\nsamples = 1\nvalue = 29000.0"] ;
830 -> 831 ;
832 [label="mse = 0.0\nsamples = 1\nvalue = 23500.0"] ;
830 -> 832 ;
833 [label="Casa <= 0.5\nmse = 63472222.2\nsamples = 15\nvalue = 52833.3"] ;
729 -> 833 ;
834 [label="dormitorios <= 3.5\nmse = 64489795.9\nsamples = 6\nvalue = 48714.3"] ;
833 -> 834 ;
835 [label="M2 <= 117.5\nmse = 84750000.0\nsamples = 4\nvalue = 46500.0"] ;
834 -> 835 ;
836 [label="mse = 0.0\nsamples = 1\nvalue = 55000.0"] ;
835 -> 836 ;
837 [label="M2 <= 125.0\nmse = 80888888.9\nsamples = 3\nvalue = 43666.7"] ;
835 -> 837 ;
838 [label="mse = 0.0\nsamples = 1\nvalue = 33000.0"] ;
837 -> 838 ;
839 [label="M2 <= 130.5\nmse = 36000000.0\nsamples = 2\nvalue = 49000.0"] ;
837 -> 839 ;
840 [label="mse = 0.0\nsamples = 1\nvalue = 55000.0"] ;
839 -> 840 ;
841 [label="mse = 0.0\nsamples = 1\nvalue = 43000.0"] ;
839 -> 841 ;
842 [label="BarrioCod2 <= 41.5\nmse = 22222222.2\nsamples = 2\nvalue = 51666.7"] ;
834 -> 842 ;
843 [label="mse = 0.0\nsamples = 1\nvalue = 55000.0"] ;
842 -> 843 ;
844 [label="mse = 0.0\nsamples = 1\nvalue = 45000.0"] ;
842 -> 844 ;
845 [label="dormitorios <= 5.5\nmse = 45157024.8\nsamples = 9\nvalue = 55454.5"] ;
833 -> 845 ;
846 [label="M2 <= 225.5\nmse = 37609375.0\nsamples = 7\nvalue = 57875.0"] ;
845 -> 846 ;
847 [label="dormitorios <= 4.5\nmse = 26244898.0\nsamples = 6\nvalue = 56428.6"] ;
846 -> 847 ;
848 [label="dormitorios <= 3.5\nmse = 16805555.6\nsamples = 5\nvalue = 57833.3"] ;
847 -> 848 ;
849 [label="mse = 0.0\nsamples = 3\nvalue = 55000.0"] ;
848 -> 849 ;
850 [label="M2 <= 165.0\nmse = 2250000.0\nsamples = 2\nvalue = 63500.0"] ;
848 -> 850 ;
851 [label="mse = 0.0\nsamples = 1\nvalue = 65000.0"] ;
850 -> 851 ;
852 [label="mse = 0.0\nsamples = 1\nvalue = 62000.0"] ;
850 -> 852 ;
853 [label="mse = 0.0\nsamples = 1\nvalue = 48000.0"] ;
847 -> 853 ;
854 [label="mse = 0.0\nsamples = 1\nvalue = 68000.0"] ;
846 -> 854 ;
855 [label="BarrioCod2 <= 44.5\nmse = 8000000.0\nsamples = 2\nvalue = 49000.0"] ;
845 -> 855 ;
856 [label="mse = 0.0\nsamples = 1\nvalue = 51000.0"] ;
855 -> 856 ;
857 [label="mse = 0.0\nsamples = 1\nvalue = 45000.0"] ;
855 -> 857 ;
858 [label="mse = 0.0\nsamples = 3\nvalue = 65000.0"] ;
728 -> 858 ;
}